0.5988784414427091,0.3100892771540339,0.19704886645993583,0.31521599648033877,0.31797992112337703,-0.3609818208658726,0.24276156661713363,0.3757869074523611,0.3167196162196235,0.4189559157837513,0.31839013351399553,0.28707755466631685,0.026936658611957015,-0.16210333424975207,0.1504252309848375,0.10144074552893823,0.3268973874846718,-0.08169187794539713,0.23028822912117708,0.3860419913731623,0.4081710792689376,0.14672702269746396,-0.2722387282254325,0.31112049884022286,0.30442299453401944,0.021194298852960414,0.18032910681376652,0.056693541253886315,0.09090335212013921,0.5192534158683825,0.32678662091104876,-0.1491299828320683,-0.21577942442611364,0.49568738388945,0.2898608036898449,0.5005155059175319,0.44981835597164,0.5532678463622598,0.284285450339487,0.2996416893335348,0.19988037393079644,0.17006320759175356,0.21845265623792842,0.06950049817617032,0.15998685707616564,-0.40400517442751926,0.3276618478577966,0.19152851786103908,0.47703811894165304,0.19941579078097205,0.2883279651790068,0.08251556050475603,0.3218000156556004,0.15787229203536007,0.12780308251692346,0.36662148489389434,0.09901508486630346,-0.007608091319183173,-0.0814137544228542,-0.05343191751664555,-0.30918490067862936,-0.1967350588287714,0.09708465483419562,0.24361422913766403,0.09407528480846522,-0.4663564811918035,-0.049451739550901805,0.2364309576949834,-0.08878286603662472,-0.19011360213181558,0.2944877667251537,-0.0990286987639256,0.28951802615444217,0.20985066945418543,-0.06779624376892132,-0.3623539763784795,0.4913341855852144,-0.18353203776780838,-0.14917186376958608,0.8332788123091006,-0.3494389928917279,-0.0646031666038909,0.4409940911984538,0.2086400382802428,-0.15822897707166278,0.3256240250863243,0.05914493265412889,0.1793098016081125,-0.17036839191688635,0.6436460774732011,0.13001925532650163,0.07325529431213565,0.09671830523173691,0.3090753962106298,-0.3994258804763933,-0.023367702384671504,0.6945235327050591,0.11959631201155824,0.3596363322047072,0.025920415366595378,0.41815820394875597,0.5706989593102455,0.5064327464302758,0.5277699199979852,0.5336618871191721,0.5259994712495347,0.33063215322771133,0.3754958064271793,0.2406052861078949,0.39565331738875487,0.10369024741219825,0.1014810453452579,0.31350827138506276,0.13726424396677045,0.37909632136480603,0.3703980529519664,0.35648857680209556,-0.01705088361033049,0.024827568133727582,0.08286645608957431,-0.041111840810688166,0.0035320741182803786,-1.0666937834532635,0.008502512202085161,-0.3103602685258733,-0.3989069276729885,0.22786963468830287,0.00740690429763071,0.16082284844663386,-0.22632188731275987,0.23357074709202805,0.052023367443020795,0.26543298913515523,0.3595516830132982,0.05505255900930917,-0.3240444697237116,0.14624552904734592,0.06299592628364326,-0.013150803801169805,0.0026744056502473264,0.33787888594279114,0.3972306352376758,-0.10158332608358576,0.06259469918571477,0.13684473840241193,0.2535634429253764,0.24671046359776136,0.14963389189120765,0.30041680258724784,0.2118901660778054,-0.20618694814515026,-0.30217525922989796,0.5958227475818574,-0.05578995959671023,0.14471054895172716,-0.08760618116806376,-0.3288144981671462,-0.29391827740137794,0.23097425095487292,0.5533176328090418,-0.35947154139124216,-0.19943246983109011,-1.307105328295796,-0.4716716120484178,-1.3545383944195082,0.22493915639507223,0.27279438143564255,0.43676565728886474,0.04251404363656461,0.3483297626687644,0.0010643070401345678,0.11182519814437557,0.2750098807754151,-0.30403374786879866,0.13746598675544594,0.09263286008524263,0.06142209079117697,0.18556086683277784,0.0746931365819119,0.08076609588994066,-0.03167574418954775,0.30688231456384074,-0.06074563848432986,-1.0598273929239643,0.09903125869280734,-0.15575347998688158,-0.04706352776894852,0.0035008128813586474,0.10038947844762494,0.10800485899044351,-0.23701234317049705,0.32002198010178895,-0.2242676597519151,0.20574800319045627,0.0372196326543659,-0.12227472914183733,0.22603608822324062,0.20927047766920773,-0.005304274037692192,0.303865577035468,-0.014902216234224903,0.23511034241627649,0.4805257219618356,0.38768434658297657,0.05080066459676213,0.10635596301178056,-0.11474760150484117,0.28514709642217706,0.13649269607493908,-0.3313907313649267,-0.05196034551617227,0.09662489898424416,-0.5192473893705072,-1.022345712802347,-0.4715655499328041,-0.6107970566571249,-0.5222562124552496,-0.04849853928290173,-0.06549148510830057,0.08897632251437508,0.03924783740154838,0.11905433677260743,-0.5572723074912714,-0.18140205760649955,0.2898474798651162,0.38931186144868707,0.01732409400476987,0.4802577018719512,-0.019583509722425327,0.011247121797005141,-0.08111461750292073,0.09749620196476635,0.12573831957477527,-0.1733895125064095,0.21163586852594377,0.25178357409413726,0.30540113965508814,0.12722357229084622,-0.17636770185134365,0.4619411340923912,0.05270168596316282,0.165401488633812,0.22227353738792585,-0.24597282606976845,0.22975362579181155,0.29534521889673065,-0.1740838525555343,-0.11927499066037371,-0.13156419864989793,0.031051035615002585,0.2642104693547154,0.3485462455453497,0.6792187478315291,0.36888029578057563,-0.6729869553353952,-0.9785648669520428,0.28946453423986085,0.530250104210731,-0.4784044530886254,0.5106353926899059,0.5772707016146658,0.3544689890143121,0.46692753325133785,0.3370841412285619,-0.2990359500495705,0.5374348027309416,0.4215911273473751,0.3201519097351592,0.37841167025596706,0.11746818331959702,0.5043317073005652,0.35091546713721067,0.2634039424859613,0.42205429319842336,0.5290624803896699,0.4258546540249075,0.6033828301654641,0.39453330992362917,0.29284294946121053,0.3798022899477413,0.27905613545099384,-0.3349092121936633,-0.21211769551640683,0.2568503991034153,0.29578259168970666,-1.0665801153922507,-0.1738244970856634,0.25730968419530476,0.604772356118277,-0.05503528806076934,-0.08207719789404673,0.545409619279346,0.39405162323866516,-0.577853564454191,-0.40837353017987166,0.5225491980253735,0.19429728808302163,0.5982781773372666,0.2978768870987933,-0.32743326064021727,-0.37703368871126436,-0.08333587452886937,-0.1722097223689862,0.10087161880965109,0.01202745748589781,-0.5440386616530983,0.18129044680102507,-0.7598862987643977,-0.019909645121448313,-0.4049657621139546,-0.006555857160146145,-1.2444732681455224,-0.03337368331082207,0.28830715174496324,-0.58501093204682,-0.2216215454582393,-0.08723234976622621,-0.26980977704277015,-0.46471441314216144,-0.807268915260916,-0.2840659403440677,-0.8515107214134039,-0.4795505691306774,-0.40615312876907195,-0.6503954478579953,-0.5775584736959708,-0.2203713831406727,-0.74339634130379,-1.0807260902646036,-0.05390692978300706,-0.5619887382859842,-0.6709802153430854,-1.2363148564408408,0.13444466397385163,0.2687466785467547,-0.7487512319152105,0.4204970820851475,-0.48884291791096557,-0.5708779492230575,0.3084245286684397,0.2066993634251812,-0.9641231308322791,-0.33438518891064317,-0.45949122489322136,0.556597188472238,-0.7972398191250908,-0.4039672041022805,-0.1556789121773296,0.29890892689288956,-1.3747401471920344,-0.6237584884393033,-0.5169426818825452,-0.238787645097349,-0.7756709918136437,-1.1771640729825392,-0.721332075037086,0.03443234998593239,-1.1619737250577384,-0.41303867002482086,-0.04659482663996245,-0.7379211026533828,-0.4226081551606016,-0.699208443379878,0.1356336315976128,-0.37586718549286635,-0.1246752697801512,-0.21926517333995368,-0.6346421114392055,0.056129695163149924,-0.4191957375166943,-0.1490244037283181,0.05780663851422313,-0.5294201636999923,0.329436731341754,-0.08475498585985013,0.024776398608362168,-0.18628174202702913,-0.01726014738668615,-0.487094308554199,0.237445723567619,-0.5232229734356741,-0.20017471848854848,0.3780970642771524,-0.17878007119228229,-1.0230305431975253,-0.13859020698855556,0.12314894943875129,-0.5471934122671759,-0.009400248234998451,-0.3665508041538296,-0.7831056159720443,-0.5784176497398001,-0.18815474741581673,-0.2939970312518855,-0.8102645841697894,-0.1341106292707561,0.012602618652021393,0.18316536950951984,-0.1406888320158863,0.5239137568236503,-0.7109488195091487,-0.20548411843838116,-0.21317122246963857,-0.48713808247585344,-0.60953131140462,0.0562389526434722,-0.3838365793296329,-0.1032626326051756,0.24864750112276907,-0.00959687559645731,-0.086216853939708,0.3756717793179973,-0.0444170680786516,-0.25377997723508733,-0.5665318752451125,-0.1369694287389283,0.36466233203909265,0.05960226197389069,-0.2896816760601354,-0.3612806885585928,-0.0799173298439888,-1.090025886506168,0.05262829119985399,-1.6542800521460648,0.15525192983071892,-0.8617171706570061,-1.1574791573997,-0.5417290250162282,-0.7443785811256888,-0.6077926853989586,-0.6167241708067953,-0.8345617816695515,-0.6850126077412065,-0.6573938389389302,0.1644315363586099,-0.3227215022825384,-0.11409315275800679,0.2857236303096781,-0.16380199679609178,0.22545216518868239,-0.4652511213849321,-0.6128350207424218,0.26866446277635,-0.08233235143790917,-0.445822211179333,-0.3904519407112205,-0.37026062229509976,-0.5785724234582046,-0.3362176535342793,-0.31340540851863286,-0.2576994498975992,0.18363068696497795,-0.5987900786879525,0.11096411233732782,-0.7742901639029542,-0.3036472098032479,-0.5880434335866734,0.22260621875035902,-0.3893688828484965,-0.36096646032434465,0.014375284116309256,-0.22389107616532342,-0.20355731624489107,-1.6689671720301569,-0.10660117439059619,-0.22385637146032075,0.14653201658772624,-1.0154062944694147,-0.7656432686014394,-0.4217225461725493,0.2437668907639532,-0.5052540763825023,-0.5858998732618361,0.24172557612593046,-0.28359080136063897,-0.8114153513759385,-0.13253706180893499,0.13327698708710783,-0.2209073061987202,0.21172264959434797,0.38797905669064836,-1.6940349140699118,0.3291698974564591,-0.35267451039972986,0.2866004154348089,-0.365655508098069,-0.49260598313236964,-0.092199591256464,-1.1806402336419257,-0.37540656808675527,-0.19289404306485639,-0.12924135378185309,0.15827802994292026,0.09941859020530872,-0.10387675383225888,-0.205677081282398,-0.41597316289659847,-0.42638753819497993,-0.9538756714394132,-0.24847276129413273,0.37587843274738475,-0.0018321046485071716,-0.6285152339550659,0.13170042357067702,-0.7062740112196682,-0.4674171488381646,0.007698256586096073,0.10688787838430823,-0.6099235018952469,-0.016491536251791596,0.3037640075735537,-0.26559240140620016,-0.3385931695807571,-0.5144997577932062,-1.196261458793903,-0.3566354967261623,0.29621338186014007,-0.31470333072815837,-0.4996054378377589,-0.4606378133774372,-0.6554727934721636,-0.2905934277051045,-0.7588671175267743,-0.7485955447549741,-0.20773266801097331,-0.9167597122045161,0.32292383018178256,-1.0191237050947246,-0.45047843346812866,-0.5613798562828144,-0.303637733321922,0.19120996193374526,-0.26316645062966854,0.4067495813469734,0.5069925841553228,0.30405038085126845,0.30667314138990454,0.4825620973386272,0.23824904597217256,-0.5014928594471667,-0.15895502652088367,0.22184859879683488,-0.10381626547292104,0.3041605559004809,0.2795347918969282,0.23754317154021007,-0.1633017081202843,-0.1909444113411291,0.07493129874121024,-0.7901122097627088,-0.1601947759245839,-0.6824210811615773,-0.3373877020276082,0.058507842800466635,-1.0793995666557505,-0.2807182267531776,-0.6615181117075648,0.026475910556541873,0.2672671528344006,0.02099534312659742,-0.6784176291200347,0.17642500903524735,-0.7284470375250689,0.16958104763233714,0.019283218759510334,0.34248092943485525,-0.11177439900805437,-0.8140111610893694,-0.5287111924677468,-0.18445253284576205,-0.1120489473058216,0.27458556215922963,-0.7807479882863804,-0.2655751333138753,-0.412227090700533,-0.26129707983691625,0.276668757678309,-0.7269224269079213,0.553534260827321,0.13714899820269305,0.02825088322404634,-0.544851715186288,-0.6693559159993461,0.027469103181054277,-1.0606126990314582,-0.5062641485054592,0.4830705288984231,-0.47648363145051587,-0.5224006479363497,-0.46782451967919253,0.05696568994383385,-0.3530782613331892,-0.5479999309839164,-0.34043854338119106,-0.6239732313380071,-0.8103079911651726,-0.061834731211056225,-0.7903960898731379,0.046291477884028126,-0.46604372813049494,0.20418918998231425,0.07977843398845062,-0.2893218548439425,-0.2970449267345323,0.21245655298162874,-0.8071673514217632,0.3423460531235062,0.2010362808100433,0.008099940757129125,0.3518883123560332,-0.5748495823310271,0.18686526036202783,0.3610549911392402,-0.6428309272566037,0.3917893799820965,-0.6248916865351678,0.17522543202504953,-0.46220098095610834,-0.6080217851929304,-0.6587919313995384,-0.47838376747288897,-0.0622489522101813,0.16045080691191643,-1.1259972495211772,-0.19805593076439976,0.07239896095356822,0.20309592176228172,-0.07226176966069484,-0.9839859148810568,-1.056601319558454,-0.12639540838934646,-0.3238605032703321,-0.10846695889986202,-0.4454976344318883,0.11524135214001673,0.16275144436194539,-0.3925806612473725,-1.0016078433470845,-0.031328336216809055,-0.7694360864154599,-0.05876149603718949,0.07956593132979074,-0.42765348218269467,-0.23999522311894028,0.293309235262402,0.3337295760420041,-0.5462078898507712,-0.5335305298915253,0.274815605176594,-0.009337993471588235,-0.2947753117435749,-0.5847934919172773,0.2986076744600579,0.05874547153485026,0.5484779159717355,-0.6071212729516512,-0.5082680997688319,-0.7345280622244726,-0.8932152783160048,0.22948113364031,-0.11048959584439375,-0.503964427287338,-0.07378358631763585,0.22891651226099077,0.11742585830406943,0.36435088875280924,-1.5334568460633367,-0.7624055708189419,-0.3591386739730118,-0.8777373383999149,-0.8225823979310201,0.08353237329537214,-0.23199236820970406,-0.07947091119695239,-0.4871759302354445,-0.9289120415603971,-0.9616839353321738,-1.167419412794118,0.10097912006379708,-0.3761833577681005,-0.4568958391293604,-0.5431873995631967,-0.725849717427337,0.01608673362238746,-0.03802175209223044,-1.2408163378405952,-1.1309512509817417,-0.855929286126093,0.16828049981414206,-0.2643871746168645,-0.5354401188511978,-0.08007156203658067,0.2972479829985878,0.050698486864823124,0.10775719904393982,-0.4656401763765879,-0.00219162882765353,-0.17669170807717252,0.3288293577292568,-0.0366574097903284,-0.09316768762399924,0.24356429648608652,-0.6385152867521141,-0.3308821231334924,-0.5064048884762319,-0.5465377139786505,-1.134911352014423,-0.6212393901118681,-0.3423494445571821,-0.3044177860319713,-0.5342757084573002,-0.4462728646573787,-0.626956062437812,0.12265834543748227,0.05846531188933016,-1.012721460426011,-0.09775940092430278,-0.6083910784396347,-0.288018818828547,0.06598728748824466,0.19366248536611388,0.07658927446399386,-0.03632900924929024,-0.2087561081521973,0.39434084917570406,-0.09049361119781765,-0.2955421154871493,-0.09742170805539928,0.035129244351524536,-0.8256498665476629,-0.5832771511162822,-1.4767153453075936,-0.2234406013050689,-0.741895496977103,-0.16714709675279849,-0.28642787813357945,-0.3917321127334144,-0.3769887015579353,-0.6800907689840437,-0.5070272289363936,-0.3600464771223672,-0.45277666560110497,-0.3960365202756337,0.06331618240536227,-0.380811961925839,-0.3309839169190455,-0.47841006755563925,0.3452501353339765,-0.21451398190335438,-0.10308665657313404,0.2588088351662793,0.3113360396054618,-0.7478699954674823,-0.08361174854591003,-0.6804383968915496,0.11178585612324002,-0.7834968221418362,0.4387721829865478,0.453515436558269,-0.2871956238453596,-0.08395613926760664,-0.3063648199574934,-0.6737066122288349,-0.42721634654550317,-0.6529162672964547,0.03481481621133781,0.11328552316346852,-0.43591318702256343,0.2898121028402883,-0.1952168862129749,-0.15307988848460985,-1.3327617155141194,0.5821014735240765,0.3541027401909138,-0.0561515231897147,0.2746889663583134,-1.0438461728556783,-0.5181745694202843,-0.29985642511859595,0.1292498347948892,0.32560794996224185,0.2151280073520165,0.3861503507572053,0.35227427128353433,-0.3314230865747929,0.5448669875849118,-0.36651285636569153,0.46634085059188096,-0.2711692958662502,0.30410530813426573,0.18896806547423853,-0.2649581539988424,-0.6861599481257242,-0.16960225755439223,0.00030195813498633815,0.19725866656452298,0.17651356198216794,0.12935358795973853,-0.06557845998551266,0.007590646373353776,-0.4938283768667139,-0.3517969046695786,-0.8381913792561485,-0.5980376602970746,-0.4336231070816999,0.41242628823391314,0.3730223935942749,-0.3978548884802017,-0.04008543064034635,-1.0002651723364853,-0.11262691281029596,-0.24618727102174168,0.4427206044653499,0.5164731992758629,-0.9000733557699485,0.18991724932614515,0.22456948446780053,-0.09103837361643567,-0.20361892190034453,0.21086553055606624,0.45009646127851966,-0.22747820555570025,-0.2501671843522467,0.6543753272549744,0.19747442284038058,0.4008774917034065,-0.5116061280719862,0.46533299370376313,0.17116974403974392,-0.23792076228865489,0.23707244392231494,-0.3724583581693362,0.23318984235902637,-0.9883797709500518,-0.3252208287423381,0.32943782766848706,-0.13215621766524413,-0.715949572248704,0.11468010258564047,0.05050379183529969,0.3042686941446734,0.2711234715251241,0.3742579872664356,0.36024410181610683,0.26497562357574356,0.1674616298816894,0.18158140420394037,0.3484770026438044,-0.17644030466143448,0.06311202037958828,-0.15899011210921998,0.173048577698976,-0.3192912391041457,0.262579670449348,0.3879800416574172,-0.21916955457591442,-0.9088878875989744,-0.2218140506366009,-0.2044030414823897,-0.05046342999019297,0.6379898863791346,-0.27462096749897097,0.0019895979658917824,0.13744013694158794,0.1430373501653376,0.15982482480609778,-0.5810673824402834,0.1849307163526771,-0.2953770644288651,-0.2648937839709953,-0.320208158335505,-0.4485948032666087,-1.2944555091199919,-0.11473304689899662,0.25376094532007615,0.24062574983488097,0.4253937649818728,-0.2454873463349452,0.2699936520581786,-0.9450135588630592,-1.0471220646387158,-0.4649495425573345,-1.573672470205228,-0.49885595780525016,0.10671423693844766,0.1756211206596759,0.43907965750986855,-0.7502428157866007,-0.09097588655199958,0.10689181587189793,0.003913887199646944,-0.5546048885196224,0.22296840524011208,0.09539096688169602,-0.02191846925451492,0.023097923119924996,-0.08316454882380629,0.35970312728668846,0.10614241697352529,0.09766442380857863,0.15635952664138233,0.3769969950820046,0.048989548223498186,0.8035680204458527,-1.310719520571091,0.2699058410482924,-0.6963481817788554,0.9825568816309723,0.08184976883223775,1.0321335048762377,-0.002624548948616309,0.23680989316299514,-0.1695321591410961,-0.27391654213394706,-0.028707595984937793,0.13211153864333322,0.4859811244473143,0.034069457553603265,-0.2332605702158479,0.288038432958629,-0.7110878659720685,-0.9929729588685876,0.30589955783020073,-0.13703637234027374,0.4832370278495272,-0.6445820620874586,-0.5896698464975192,-0.2731697768108434,-0.44765693545266955,-0.6898712831533594,-0.030771095671686798,0.0700010442370767,-0.7458879881724594,-0.3273095907195886,-0.9387941229971172,-0.47100078116843336,-0.3673297339215465,-0.07750850739047399,-0.07013392834977164,-0.6062845821278752,0.05819816392221601,-0.6361910655222411,-0.7619824836066204,-0.007643491523838309,-0.8365608633742148,-0.36598769539763104,-0.2025971468460464,-0.264203053566835,0.0704455722773393,-0.7764485911592661,0.20186274372030644,-0.26590177644564145,-0.08350955147126597,-0.6049131550394106,-0.16775379746800734,-0.18194520743512038,-0.8002837917426241,-0.9016317788554633,-0.8871616056383419,-0.06915829298720799,0.08368100526662117,-0.09986389762832991,-0.8452988065256484,-0.24424483594860724,-0.24030333519402372,-0.8097681530396028,0.03330802492334632,-0.13638230552272002,0.04654119631842523,0.48093555011952516,0.1928545516811241,0.0815736217653921,-0.5178297471977257,-0.7685341609046403,-0.5922487625585114,-0.8707570712190776,-0.2928996357961776,-0.7999843606405481,-0.5572170242863033,-0.12408249428572199,-0.07196341825296068,0.15029170203664513,0.19510221785512566,-0.09751094904095996,0.13030663817741836,0.05810380121486533,-0.11412475863658003,0.5263613415421402,0.317907741257453,0.13332289503000289,0.2386806372187513,0.24181507631561192,-0.21446072497572005,-0.20493275830200386,-0.5780727781553561,0.03565926092084811,0.20498434072572705,0.293107160732297,-0.14068707242382616,0.6928027720682322,0.27658801907279806,0.5152288620686513,-0.06788590822278401,0.06246577662428009,-0.7627944532532183,-0.7651510106493232,-0.20410738153813973,0.13577464699471753,0.1456448277783453,0.23635076627339816,-0.14394539469276146,-0.5978615413480579,0.3205489856449263,0.17747837196583696,0.17244328544329038,-0.3440389776215934,-0.47149347347433174,-0.5703624462036619,0.2573090857567358,-0.4192549515760757,-0.078850485513578,0.25311820384553696,-0.11552435787696327,0.035548180109673456,0.12647359130810307,-0.30923100896546857,-0.1291239294734137,-0.28435592517860886,-0.09641756544645971,0.15657094368220337,-0.4132369199788877,-0.09797701701755206,-0.057473244274705716,-0.005038577260868689,-0.5075984991356192,-0.49963454360357057,-0.5155975650971794,0.23879700662355519,-0.40998218936456904,-0.4454546183391056,0.4057970754447233,-0.2757818933949442,-0.9318287983997502,-0.2060799119433633,-0.14684325516463081,0.29984528921927756,-0.15420860526711022,0.09108485129705338,-0.12423244329912347,-0.44390414902430325,-0.5425377572555696,0.24022275588597433,-0.6723347776874922,-0.061131169182008616,-0.23564346447635479,-0.21505988432101297,-0.5749471194431108,0.5237558201632235,-0.3364119601589496,-0.09610824994169755,0.005545700056319866,-0.11017927229001213,0.4505798280336161,0.5803572772219366,0.3088911499502338,-0.16406349687314617,-0.28457007508533055,-0.15430867285536923,-0.11758636010474231,0.08561670138665642,-0.20219968327184962,-0.1046619752450697,-0.196360160612631,-0.12687450033928238,0.49494647941581077,0.33366741261545074,0.4301187156614532,0.4589602517168713,0.11213153369213075,0.4193247041966372,-0.14959654914058726,-0.5015795876060514,-0.4892023268181105,-0.17408564610801705,-0.7342381548662169,-0.41116904201942445,-0.3626104723508249,-0.3572905962102194,-0.2268445049335024,-0.17726537856483301,-0.43641850971136664,-0.6059891185870414,-0.311976874694764,-0.5028622985914831,0.41835616518774266,0.3385905204990142,0.057185001812445735,-0.6709900573971015,-0.196793859574,0.1271967240664105,0.09061284594642954,-0.14043264751479703,-0.3743620549064495,-0.36070207723448444,-0.06934893099193097,-0.5166712482335378,-0.3745643525488508,0.2948166058396936,-0.7080501857531658,-0.629289938836045,-0.9294948942563793,-0.3282420260253136,-0.7652431906819354,0.09960837937804187,-0.6391419619773051,-1.135998252493884,-0.32283802918164595,-0.20452627253798644,-0.48176537436511535,-0.4860059889176683,-1.1960250964556314,-0.5419775866614426,-0.6544047814231185,-1.1404556860745565,-0.8862960182324532,-0.6319338844345925,-0.5951167826323781,-0.9525699321795187,-0.6534024142984256,-0.5158740219862831,-0.5003323749325808,-1.3364510941347043,-0.4587548760050376,-0.2179492707438295,-0.7338398013106344,-0.9040062047754898,-0.4061950162731371,-0.2543844261919248,-0.10529340501326871,-0.2335047676211222,-0.8735879673781604,-0.2190038126677372,-1.316795764566242,-0.8183364009590164,-0.4236471465896979,0.07947725357900273,-0.2739839354493685,-0.28260932068653916,0.1421230627868852,-0.12842299612101393,0.3305074352474883,0.016495950466108113,0.32594870659213054,0.25115182923361423,-1.1988641353050142,-0.6667742022601176,-0.2839534310794669,-0.47095861235167724,-0.7385890909404258,-0.34939140965018667,-0.5473031139544126,-0.4001604062889838,-0.15940039265693107,-0.5593948789117423,-0.047669897093981804,-0.8934797257500131,0.036996640314995825,0.017337782483817583,-0.44453957917617565,-0.2366485454431295,0.26973805993187366,0.2543267579175503,0.2643437348795401,-0.7523811263636055,-0.10233930634134043,0.16104401136511298,-0.6644523458827606,-0.44872117705378733,0.43848574940888985,0.44966355351769444,0.45014543544958213,0.38229830775389556,0.5133586229315508,0.37597015333612915,0.1750793348410898,0.19269989587807348,0.04169538251153823,-1.1475621203918016,-1.1909134439336255,-0.49311319430551054,-1.397825395917938,0.18485520228331895,0.05973803135153439,-0.010509220755880696,-0.19882270301976576,0.00473841916705615,-0.6178935103156536,-0.29835274861420646,-0.19730578739609034,-0.5721067688765934,-0.2551706735985432,-0.21215654155206934,-0.5229771764149651,-1.4702279065716473,0.11948501032076334,-0.8213684833061317,-1.441909441890755,0.21767032675215145,0.2515178969826204,-1.0662103500254616,-0.08785225217239645,0.05069871177550587,-0.14980593525646232,-0.3914944817832434,-0.38186665746511556,-0.01915924267890495,-0.39499729848858967,0.019580164880703473,-0.33506763562637254,-0.0762055625362782,0.2821677882617648,0.07022035184237294,0.036328478273340105,0.017995635055203837,-0.054772112322505846,-0.05647037055017481,0.12760319877993356,-0.5900072112240089,0.32894340259161275,0.4352139089963248,-0.17749034989045928,-0.27356891287503543,-0.5397961661458339,-0.3884322790497023,-0.9646073824571718,0.052362161214187325,-0.36842213576697086,-0.8512040691044253,-0.1323316920293624,-0.5107743979712475,-0.9901735237604604,-0.020093719421405906,-0.11061598997700565,-0.7471661476324463,-0.19343130694404065,-0.3742639178166281,-0.06766671768538107,-0.6125700070536988,-1.0327442000532896,-0.1706329454821016,0.3040507074356958,0.02332893326171325,-0.5942692027974119,-1.0019681642591463,-0.05090229277387815,0.22985998102065885,-0.7671997490917593,-0.44400697083113044,0.41030747671079526,-0.22915395123865576,0.10312184326957506,-0.41532522122108945,-0.26356843376113726,-0.15788716569995986,-0.7852857158139815,0.18693808277668506,-1.0263007839162552,-0.41512610938224875,-0.38062491311327284,-0.18530564395207869,-0.3937164438447424,-0.7103227570522395,-0.7764645923703811,-0.6636435168198671,-0.27077819893572125,0.1753536967925295,-0.7028641156000913,-0.7980054042313015,-0.9509932539363414,0.19131875182217659,-0.01858788894707378,0.13725000313015825,-0.476765321294183,-0.5987980621959944,-0.1250797464061646,-0.31725968032401297,0.12074434800317839,-0.3493726960944778,-1.2770122420390089,0.24507161985292933,0.20240828130119945,-0.5106877753402649,-0.43652065625412356,-0.23367795555716392,0.10040826736939365,-0.15257079946531885,-0.7126029842440186,-0.4262981763517636,0.04552179018471173,-0.6472404683458769,-0.23780364911638835,-0.08623330931299998,-0.06122069371037169,-0.87880922311201,0.318174987588996,0.5224824413379302,0.3625499414970128,0.40826740996704197,0.361641472920848,0.3504055442397592,0.04507861563436691,-0.025780668530202396,-0.27462412341642595,0.09160470104116776,0.2683439775637341,-0.4518947076816239,-0.12623992650612542,0.008381237556291844,0.17324061517850992,-0.6400992494771359,0.11997797177858843,0.3996734259824843,0.07554532514542525,0.44281786507189136,0.2566352168176317,0.28687463870021046,0.38635515543915105,0.2774848547352001,0.3285861219701939,0.05372375617289377,0.3734140108481869,0.39838529880180873,0.223559266739585,-0.46445602273557207,0.05658824448440684,0.4681059627823983,-0.7361580537788619,0.13526085021166817,-0.6332063205286919,0.19816755982854523,0.04578110195019749,0.21322377822106858,-0.708511449763607,-1.0435698730802088,-0.172112519587257,-0.5237600384605164,-1.3481646020259481,0.22089345096991292,-0.4853630490789057,-0.9036099714900157,-0.21104210720424801,-0.14798305448099253,-0.8422107125198713,-0.9254437329895585,0.13613516529889394,-0.3106326532094315,-0.5337153277479136,-0.6269536803762535,-0.0941225810946988,0.060548915093415284,0.11562866100568511,-0.4171898300082336,0.128311391237664,-0.9052867908694819,-0.29818745185014484,-0.5757514819018443,0.10889253878936297,-0.00020528463797221162,-1.356369700771851,0.24085720536644506,-0.4223269651266923,0.13462587570044784,-0.1114916628908143,-0.9768407263526871,-0.5678293002785831,-0.07878974766231295,-0.24302258150166045,0.12714864829797795,-0.5816856131925151,0.007915880592363332,0.08435163586927241,0.37935663019949145,0.24622621953211973,0.19396490428687363,0.08046849059004232,-0.16788237456037058,-0.6470895932131979,0.11154920015318288,-0.847254827015529,-0.49543090751069596,-0.7069526230717964,-0.49533781635586627,0.020307596130555872,0.26932924195666097,-0.6210898604818718,-0.5344299751779331,-0.06435451975618613,-0.13105075957836904,-0.3732654448093766,0.1440641959736339,-0.06360936591549152,-0.21690975594483827,-0.22955471704775535,-0.026223679272457962,0.08843709069091711,-0.11923731860234132,-0.7756417878244448,0.019608199291409577,-0.016725342812555045,-0.2156847730351731,0.2620851999977065,-0.30753139042387695,-0.1008230626674809,-0.648252716375466,-0.751624536557304,0.23597482550762328,0.09614381644162673,0.08803377846100638,0.09976880640588427,-0.4227283428286917,0.2404751458371902,-0.40622282501059953,-0.5817831226066524,-0.1945425697126903,-0.4756660371843134,-0.481152043003479,-1.199503519463631,-1.388368635580221,0.08278543274196301,-0.3034770033174322,0.08064653241745455,0.02647252550225918,-0.15224555029474363,-1.1551572943685473,0.007971743303459171,-0.4685203632401979,-0.42140031279456913,-0.02172682188005855,-0.4686760750601355,-0.3993953736668653,-0.9872299544239955,-0.6066567241775921,-0.27418442292584905,-0.3480761702462933,0.0784967480854202,-0.15614195518379598,-0.5235454073993716,-1.025565626560547,0.18747508917936237,0.11818923422982147,-0.06256147600285915,-0.13156158775108817,-0.3601254106332165,0.055565690997434546,-0.6699195625524368,-0.31543657910114564,-0.5591147816467673,-0.27735292024135705,-0.6008467754277447,0.08780083687399429,-0.181710419033583,-0.4540682380723357,0.41066867520124184,-0.49124455066126843,-0.469882023591341,-1.2139764429416753,0.3036983352882943,-0.45773558760680333,0.09205509768112301,0.18370610237440915,-0.35787582640187404,-0.7310989495203516,-0.3512734218726717,-0.7796441473132634,0.17749274294737966,0.19637437666218127,0.10275977576803641,0.17657403742757685,0.16032098479803475,-0.8066957051243862,-0.7788589363382393,0.15706874591291453,0.22358904889850992,0.2515779378545549,0.12940288914461492,0.13557849046007403,0.14930094708744418,0.029643101233900567,0.19543201645113692,0.12106967815169865,-0.35579505114552973,-0.022981837313665612,0.2868147795032023,0.09843645626802906,0.03966813913227037,0.11196662712801349,0.09628069903309693,-0.7985764337577527,-0.5045354943001242,-0.33971292344243825,0.03474185727194823,-0.11513461779145046,-0.5636856936496241,-0.026574253520329553,-0.7030795110509446,-0.05119258812942238,-0.043500328893769695,-0.32434824348312835,-0.46240337101307255,-0.2426869204101046,0.15267849765782188,0.13072986924913965,0.08135621717356704,0.19183194210771504,-0.5268430349922663,-0.7068082417152545,-0.9227091025691332,-0.9443261983828019,-0.0015811483603724308,-0.10066592393931435,0.08645380675566729,0.4084410949879207,0.43643245098857747,-0.6158716194973303,0.1762915469198161,-1.1277218982154713,-0.17944719612378082,-0.08276650991052324,0.23190925567728327,0.2590700228726397,0.3048442397645953,0.04408071346811739,0.12941617882476938,0.2778268154413129,0.17373429557355197,-0.3849150019785883,-0.12746308591603853,-0.04230611886542573,-0.7426203546397286,-0.17890394257616585,-0.20176483292748584,-0.030943487116776046,-0.9723594056157921,0.2227365179792676,-0.24338132703805695,-0.05839395068759094,-0.17231689516637091,-0.9427978838866926,0.058024964438480396,-0.126684892619158,-1.2086310202055874,-0.28210221249693895,0.3182178745186759,0.19927421049979235,0.05241822802311407,0.22084065015205448,0.0625309285460351,0.05594531246511371,-1.023615060268357,-0.02449797043776965,-0.38771803970529406,-0.5647480062468483,-0.09963463873389974,-0.49541426566103874,-0.17606988538438229,-1.3202178648065384,-1.0785416132187486,-0.04931051933714409,-0.17709149995514017,-1.5369070225930297,-0.9861385293676674,0.1540383020704099,-0.3574449796601089,-0.07275519012370331,0.1154605544956634,-0.6756017951129102,-0.05887004031559232,-0.9910638923147584,0.05888506031568676,-0.7098887369451985,0.22237063523406986,-0.8415891622876821,-0.16021082448248072,-0.6150116978094713,-0.1250818752407776,-0.5302074472209084,0.29088500553919744,0.49575411178588075,0.08710114773480786,0.1338841637757546,-0.6499061539196227,0.1389677297925816,-0.031018133318978087,-0.5824297643766256,0.10045301369556321,0.14866549600100074,-0.5994504242056058,0.2559633654512169,-0.2630431396737975,0.009953884258173814,0.2031594976269122,-0.14648376118818018,-0.4298036959674829,0.0871721528472433,0.03719523931411843,0.19842926627914168,0.34667370190195285,-0.09616678454860234,0.035348323712784006,0.12348948562852463,0.08537663209721581,-0.032281062428991154,0.3526773869119222,0.21555451265938624,0.13072212175467685,-0.23690112293291557,0.1394952845231641,0.331785918973503,0.167751743374138,0.1494411818057024,0.2133470861365125,0.21898556482102827,0.02384538636694291,0.17185080902620492,0.08203537726201278,0.1838691628400385,-0.3393535940243689,0.017404768794770323,-0.15979079597029633,-0.1742717479205889,0.05178187844948206,-0.09767152494231592,0.038347742761900165,0.413275486037026,0.1304325423883414,0.3284754190858571,0.0898467232004209,0.1623359175176057,0.29962205322392704,0.040296310961359494,0.33644822181535394,0.15111141025893188,-0.07416675873754197,0.2589658053681059,-0.181952976933986,-0.05130613082946176,0.20610963908825194,0.15772968635778156,-0.12946462240542428,0.023835944321866847,0.2838333117560755,0.16973784022333496,-0.052622144468259316,-0.02636698426013708,0.3602418879048926,-0.027404108303871407,0.14823749009402562,0.4200409974766851,-0.3939327456172339,0.2168570625978518,0.3646395906192083,-0.04446666266394045,0.2952150915490965,0.6429668534329196,0.21196124847930833,0.14675533289914564,0.12889139352245016,-0.05868466601593931,0.27325643098460634,0.18718758366838836,0.22255278524987773,0.1942474839292832,-0.044974175069830695,0.18553507052657917,0.22532181420584663,0.19207600986325904,0.33334215150738083,0.3027249083727659,0.21135817777984217,0.1424195750625034,0.20851303923297787,0.06340291398023151,-0.1381192401877749,0.12352962964925392,0.2667131578537562,0.2168085043315017,0.41748143097519047,0.19940099427870706,0.15576042287309097,0.1906886371379674,0.04901817072562173,0.12473132017592761,0.26356925335942877,0.23079833400063904,-0.5552758765670942,-0.22485806870194716,-0.7305129904060811,-0.3713162184311475,-1.0167015529171972,-0.29233727376398644,-1.2099452047951254,0.0330752084153987,-0.03503375832499489,-0.6400544720837198,-0.154903461135476,-0.45912332303718356,0.03159507148729422,0.17536795729208754,-0.8058603077185839,-0.045545799490030625,0.4144645903251923,-1.1110880582057714,0.06579940089639358,0.5552699816322226,0.14930361722359714,0.05124030239471261,-0.8413672562340967,0.42069178484437747,0.20624554320202093,-0.7825127721781138,0.3432150735346179,-0.2717838409234776,0.10713428015083468,-0.5762210995143986,0.24644078191083776,-0.705020203638851,-0.45010776632435545,-0.94268075932002,-0.26930798156408625,-0.18869503662108145,-0.5761995204044867,-0.6566900106945348,0.028809811892982866,0.03722257430704983,-0.5031266558488944,-0.26750299141792794,-0.13979435124983544,-0.12768257455600845,-0.9044929764849423,-0.7717467956543022,-0.3833806309402981,0.13655609907891023,-0.21564648044430795,-0.22164946976147182,-1.4196108514932464,0.022781074557775886,-0.08810588213358722,0.2458654882580421,0.07448526252140232,-0.07856671726061448,0.1725917045250404,0.17847935265735704,-0.3047108240127024,-0.15468683247956885,-0.08666966150718769,-0.1621907899816703,-0.37476246603961355,-1.3394164933677826,-0.6276530714098575,-1.0372370084781877,-0.330054101103455,-1.2317328500901563,-0.18965273279205516,0.12476575069341457,0.04070900024571419,0.311191627905445,0.29061133936237254,0.17931827862729377,-0.2160899825910963,-0.37476728534691744,-0.04011007509169993,-0.1926197182741075,0.031906596894660036,-0.16304367096419145,-0.14435261538353486,-0.08374038776346146,-0.47331486161934866,0.27423812182085,0.05110928984126941,0.14815628571864603,0.35261203507141076,-0.049023411291972234,-0.3438159354005584,0.14299843055564299,-1.044339650286334,-1.0331960765192807,-0.05794901915254796,-0.2714029560270506,-0.48514659105990676,-0.07122646576848554,-0.40850176916698144,-0.17941807185744266,-0.4488416743187137,-0.4953512947166217,-0.37586854276898013,-0.026672083815192742,-0.5050057963135997,-0.9340799720733184,-0.08955007501160032,-0.2384533852878096,-0.609872257283111,-0.30300912768551364,-0.661335408016186,-0.5789980252307337,-0.9145685768766523,-0.9783026043565793,-0.5826804546341421,-0.5783123253187997,-0.7023996980341645,-0.6971851642150171,-0.6706581910052548,-0.7053268311240052,0.02874724063358124,0.007872886079060358,0.2727410404609244,-1.0290471744237843,-0.16193287967268105,-0.31239227837865624,0.1876782966209807,0.18438217900102338,-0.5935897978098669,-0.479020653402777,0.2906597354768811,0.5160836136670454,0.2993951638461564,0.17452526410578484,0.34579156225353563,0.029607294058640585,-0.3638202583229,-0.4913324978045824,-1.173217332282459,-0.29777226983214716,-0.7807076929813429,-0.36950226936178343,-0.07932703530404032,-0.22211192444975972,-0.3458902607371169,-0.10952444133864749,0.20026245473441995,-0.06762524065566648,-0.47320264359440056,-0.3804079510978993,0.12141977033852504,0.007328634519271132,0.6200919345337194,-0.03314313019405087,0.5737087994290208,0.4966559345569215,0.5119825285617168,0.4156386206226921,0.44161561753568407,0.5184915601250185,0.32994328038139725,-0.07439628612626477,-0.08330761367382802,0.15714892502686964,-0.09025998309037102,-0.1710042224284934,-0.7044366651718232,-0.005314503819996069,0.054762949295999834,-0.014160167743811682,0.35038386374647,0.40959884573420835,0.03235075135351546,-0.3410470480766198,-0.2687477205359927,-0.008972224156258203,0.11572720896993555,-0.08834514167852392,-0.1657747469620568,-0.13971720565560636,0.15954165866186937,-0.20157327226299743,0.11685388136156133,-0.002466835954805672,-0.012542240301987887,-0.6299461692472912,0.1521988084440204,-0.05361607480200851,0.25485299651367416,0.3984929910200744,0.12670801510365862,0.10433979701942943,0.2623453174924518,0.4379637834996651,0.34858171164800794,-0.017052614457610433,0.09486650288111914,-0.8964106725782244,0.2654604481773033,-0.7741071419725568,0.003798081003104,-0.3832177891267066,0.43908239656224624,-0.23025736796584595,-0.3754044898322566,0.3039440016311258,-0.9294488605951738,0.09743201592884705,0.2807266126101947,0.2876122720515088,-0.07227519821409276,0.29720007414685257,-0.19405176260990978,-0.3608060566005608,-0.5932021452916283,-0.6414674951227225,-1.1910135017722547,0.14429107048506123,0.3265844484867288,0.233042967804033,-0.04578183339873275,0.3949875406646522,0.40664719665745164,-0.278917149756749,-0.5638921116775283,-1.096805113950693,-0.8072282953187229,0.27263976087112624,-0.37003425905593973,-0.006976308410727166,-0.15693053953132982,-0.8755918700683106,-0.030800725206118897,0.5192757722487009,0.2638312710589845,-0.11398203187472333,0.29634940345069,-0.01947871031465559,0.2152937382715894,0.24263681019800057,0.2448457043053197,0.19079027040256635,0.5342802643131396,0.07960504007495056,0.3685193614443312,0.007320454709560569,-0.2510190898602094,-0.7048454313526975,-0.8482764881550915,0.18494828895156262,0.40159844569380426,0.18137027028580835,0.31073360030262825,0.1532311341755991,0.36364865161259957,0.08537375417647665,0.33276878060125575,0.19830495183667093,-0.09332017111770403,-0.3855732745755397,-0.4407486086618431,-1.2657223334571734,0.18682843716702174,0.11515020565117878,0.3914912942333961,0.2751773201485129,0.4815403023675174,0.31361178384022587,0.11981327873698891,0.5345280195820555,0.38850282328956653,0.06234081173684954,-0.12862411847296162,0.2580833439537505,0.03560311285740693,0.21219817605350996,-0.18107997350250002,-0.22434680928343673,0.003647501083839244,0.07211381594192413,-0.18811017557514195,0.22434245506903092,0.22993890445330617,-0.5171030476037002,0.2677300747549144,-0.7236224135815389,-0.02720210587271158,0.107722054889267,0.40733227377598474,0.1471657597967791,0.09840807715370005,0.176957557270215,0.24906742045752617,-0.1512348195127507,0.2785755448709624,0.2908904882911127,0.48340834199443417,-0.23088958346964963,-0.11999448448256106,0.30999059607151,0.2525162442931519,0.1787725486491832,-0.9529795151731119,-0.11980492805631203,0.024590870961575483,0.18512296395771785,-0.5213807051774878,0.2826604201816644,0.11217022439906355,0.28908031662105366,0.23009429669269413,-1.4636904720866895,-0.22655176588008186,0.09274318902042247,0.10452387639219117,0.2769145538500159,0.10919698412154642,0.15989677455052081,-0.48020647457448234,0.12148057121380211,0.04156065388516763,-0.46195349942356057,-0.010555804277875688,-0.4818902315645603,0.1854318795435423,0.00317021826687785,0.42628316623517926,0.7053990964278962,0.3855632568110945,0.5206753751623625,0.014914117148197518,0.13366354708564648,0.17969814557779035,0.5101633941669116,0.2401155178047992,0.2450189882945692,-0.3060149364731571,0.5182414552861737,-0.0022039497236279646,0.18391242715979494,0.2542939634756443,0.2568135608255543,0.2706688594622812,0.36526165262315075,-0.29195798429869274,0.09285443806314035,0.08045521585459472,-0.18445799154687448,1.0577520214284253,-0.14382251279878597,0.16547497869393119,0.4216614228206942,-0.8968150822217936,0.13178347753325242,0.16753892781730964,-0.9999409721261397,-0.37219321291557567,0.06886408423022877,0.3884280339625724,0.4123847316840623,-0.16650250442053688,0.3359231474101579,0.20906300371220338,0.04432629575343057,0.46707355608851026,0.27622443556933995,0.4209737792058254,0.15875047707674733,0.266935074721344,0.20110042869744227,-0.1365894682402657,0.03394825806397261,-0.6696288794654647,-0.4703018414521762,0.16124923725961715,0.34334475320815566,0.4419973319767848,-0.02323906599296062,-0.20560249150045543,0.7792552887931181,-0.09163368685413749,-0.7663253611046913,-1.0461935590474136,0.6128623251788335,-0.23500499754161377,0.08156815677482998,0.32258624085675475,0.8104609472853501,0.009986007945726403,-0.19651815229933295,0.4030545198920576,0.4560901742200356,0.32891462337822014,-0.10632250789080899,-0.19089983867049617,0.48670722263375504,0.09818944483004732,-1.0640153391034277,0.23674794253909212,-0.1742428124839699,-0.12715733515560385,0.3928389498543834,-0.10871748315393115,-0.36391891650889785,-0.298196947831671,0.468521360881646,-0.21702877490048084,0.2484362193117405,0.11436670748120002,0.13848255781169772,0.060510722226966004,0.4121742392431551,0.25139997918578183,-0.14633793458761354,-1.2652285669413486,-0.6047032491371734,-0.3113279072663759,-2.264474599485672,0.10456009896868815,-0.22632228191736492,-0.7826329906120222,-0.2568585976273111,-0.4942489721202512,-0.15770827576986998,0.2628111290369628,0.21991777445799082,0.3783214457413802,0.3096647642228887,-0.053129164626972376,-0.2834650260795819,-0.0649216085238302,-0.11173904798858322,-0.041865671322118485,-0.022572143711673116,-0.09845197032510046,-0.051314037936332955,0.19220726690407122,0.30522825258423597,0.029693389843991932,-0.002661832621690266,-0.2077899916802575,-0.280839556151331,0.193369249802794,-0.12012879041186414,0.3322850732343676,0.3485805123883976,0.06247115263181168,-0.10389991767562999,-0.05027099554656029,0.23038423788404552,0.14455041926447967,-0.12324337534570372,0.3001128788662884,-0.03096387457851241,0.15259512751004123,0.2857264177917917,0.09673613818089595,0.16841619858421675,0.19935182956019998,0.2109808430670813,0.4027296190431778,0.3572887031585945,0.3707192665019474,0.4653697885224809,0.16469279892149222,0.24273853074688345,0.12429408881127778,0.3584561906123504,0.24350197692559075,-0.13098855080197844,-0.09087704165898533,-0.3448616763246517,-0.0037329136089962003,0.22707703226712775,-0.5335479258312612,-0.09639800381981857,-0.014731020396339502,0.3336491161953273,-0.3663757478105855,-0.0013735044072196486,-0.5418196452727809,-0.048950831907467,-0.13627977939146405,-0.009328759309629184,-0.7043324903574553,-0.06757390044805527,0.05728678082454434,0.32782660414477127,-0.07266743978214169,-0.05158015330717171,-0.15287763714454444,0.05529010508307511,-0.3788877853357358,0.01693557699185968,0.025282876074733025,0.19591768857128558,0.06192906035366011,-0.2434516204956999,-0.2589961701283105,-0.03399517576482691,0.09896982644781846,0.20017854116646636,-0.12267866680874415,-0.1657435192707155,0.040707980480135034,-0.30240839426634347,-0.6107395471658335,-0.21446563840510532,0.17774118191731045,0.04031589481689959,0.042811251591336114,0.09552100027257791,-0.3316277832523659,-0.20259517991040188,0.10150464009389987,0.29017595014322134,-0.012823539463013406,0.2082905382451168,-0.24956385684844887,-0.6567396165889788,-0.5605568059954065,-0.18168513347855486,-0.055441021878495034,-0.24153535031798576,0.0013441886456098137,-0.3646239558658518,-0.47198417269244547,-0.1511866655592654,0.08015668814936622,-0.1265538199536407,-0.3975994682451341,-0.35660231731523273,-0.11017542379905594,0.0886400161063877,-0.1972801530043617,0.4354875195204238,0.021114481894940414,0.07275241630421404,-0.1758080980903101,-0.49718416525663894,0.336401465671977,0.184089026354325,0.07207162827638988,0.23508704009609835,-0.07807582582899456,0.0896346159334856,-0.08151870755763443,-0.14980838407662622,0.005588859160422569,0.06744839122525685,-0.14783309851266574,-0.758271485798842,-0.6250071841388917,-0.5584804184546067,-0.02365202172195006,-0.7135414049432768,0.0356400720049816,0.16525636802095875,-0.3079176877530162,-0.7937680008345962,-0.3933590195358502,-0.6765404444281906,-0.8837069023451569,-0.6828271320247545,-1.2894895906345156,0.10169466750256981,-0.26884602201116586,-0.16501351265917727,-0.27047361911080053,-0.5827012832265995,0.33421445845619746,0.1650239166764452,-0.039182985031618066,-0.0969773178595249,0.23050206133268458,0.22849468827878017,0.19584642283816361,-0.8013754720178186,-0.1419568479178469,-0.06538622781086655,0.0755486142154848,0.15029572221926082,-0.35874592866652466,0.031197832289171643,-0.7142958832202643,0.18329893644451106,-0.07657352125026505,0.027465138053851194,-0.063440007403089,0.03952657868892329,0.17512651627855624,0.0743101586027852,-0.07748883989244965,-0.15730988909970697,-0.2367823129235156,-0.3020984752809602,-0.07386512015169973,-0.02966435469244874,-0.19736634720587273,-0.5414773052235058,-0.09969116303530788,-0.5174600498926354,0.18262695742829263,0.00045157269730987127,-0.8413447099206769,-0.028962568543179044,-0.04062267667319819,0.021123841755272335,-0.09291762361175117,0.3808097402615993,0.266064996666454,0.03676955529039674,-1.0992593747215766,-0.1739238184521044,0.03208681174930523,0.29017776077222857,0.24714985301604084,-0.08886652852022853,-0.2919178273076772,-0.22093481703134318,-0.7033942075789545,-0.7228171137737871,-0.41721838893339713,-0.7279417081920008,-0.9726283882464515,0.2805738493645616,-0.26207285025162447,-0.045232763072779174,-0.9807938005219072,-0.4193615681403433,-0.07608368133476343,0.1477607197578214,0.08426150746079239,-1.049409114181799,0.13227300104698714,-0.45558581791197655,-0.08726043024170771,-0.3284908274332935,0.2528203063328347,-0.004556965816966375,0.3891003961412531,-1.083668239318959,-0.5223389126352925,-0.4728611583813922,-0.41161263598229,-0.6188579452954985,0.2128684700843252,0.024553475054654807,-0.28601445420101135,-0.7941012201798474,-0.15084235125471496,0.048413651942285404,0.2039482725730072,-1.0148871971051607,-0.15618595369274826,0.2260433260275975,-0.4247357261473074,-0.36933086147113386,-0.6935371553339497,-1.041536363844513,0.294875791965009,-0.7569744313049814,-0.31954271360051617,-0.1884643348827425,-0.6030942386834146,-0.8133458793174457,-0.6464286594982227,-0.08783262182187807,0.06102129210559252,0.1433033359979072,-0.055816914893877495,-0.8931466676903158,-0.05211919097534781,0.11467594651075316,0.4610994788334231,-0.19892827264238291,0.18228510338795187,-0.5828661327590517,-0.8798589734908948,0.08675300247860118,0.284979873434942,-0.04954035755969843,0.035826175804577955,-0.11255855782352138,-0.5005460870676763,-0.329814986703102,0.011371855360637685,0.20905142752722763,-0.09695906234870959,0.07961812218657323,0.0918340545446333,0.025099946343581005,-0.4250420890024366,-0.07097129598114767,-0.30779798606038383,-1.219605804417975,-0.6213200650448223,-0.7447568683839073,0.0696943392571942,-0.28498243808751267,-0.1382619808970151,0.3400960486197146,-0.9222546392302341,-0.36845887141367506,0.09032429218758713,-0.21421371631163555,0.21747341227363046,0.14550544819973008,-0.30070649658306403,0.2398127504378873,0.05190885846308314,-0.22085323035032106,-0.4328896376767831,0.001529618393574799,-0.07751132673281283,0.19365760063350448,-0.31498401664056774,-0.8994872674317491,-0.3934995966865282,0.018330707974827547,0.08142066380989527,-1.3300256715845935,-1.5855640189186637,-1.7030149258580598,-0.04031179845279386,-0.8828992608093815,-1.060016375194329,0.1597775178620307,-0.5048370766318471,-0.6504853255440823,-0.02700315574460381,0.2451160316325857,-0.03921868243341246,0.12670211559409542,-0.3030000321552861,0.22597550108046136,-0.3702076460347048,0.28853199464856194,-0.4625360230501878,-0.05256874484023049,-1.2724322680521196,0.026567390696150873,-0.6502453491204039,0.06291615965639862,0.10647711136752841,-0.26493576151021775,-0.9315416995649086,-1.170730654741083,-0.5315916251353111,-0.014958349369609917,-0.4864456996463245,-0.6705971028538897,-0.608969455274458,0.032192541022210086,0.2908815792652148,-0.7307446852224158,0.4746101849853706,0.3007734714789991,0.1646813924256448,0.09195584807772009,0.2520888134989942,0.31539849574261763,0.3121119641476806,0.4077730487259933,0.254253381578221,0.03781399344124301,0.11597264883905978,0.3527252412757042,-0.5869351671262525,0.18220037478704773,-0.337956091801951,0.1395304401366883,-0.8085234569151384,-0.344724532823827,0.2160104880756116,0.32458174919162686,0.19720316345204353,-0.188325047797,-0.01464644721644937,0.4508283202457436,0.1765049414237519,0.4681741629401594,0.05511546445654447,0.15118013303056124,-0.38449023158067647,-0.13853786771002014,0.26828848407227485,-0.22695376581245563,0.4901416617730725,0.25896129680507085,-0.821367021676189,-0.30314638798933197,0.10683503722689808,-0.3088693381876916,-0.5096503315117061,-0.4116297209389388,-0.7376426359638261,-0.0753606055352719,-0.5698716983222771,-0.6556546757803574,0.1341645925989801,-0.5851946190853013,0.0834555827633714,-0.28170287574984937,-0.338738888630076,-0.4376280719027844,-0.42276656727854417,-0.2828732475876092,-0.2988945180809685,-0.2679418028442853,-0.5478212708698061,-0.7059214370993341,0.057679846938401565,-0.03146002988073538,-0.24376976918751414,-0.6014979093486678,-0.5715038238803922,-0.22502656236098936,-0.12978890033429913,-0.299808212150157,-0.11029102446047265,-0.17892833627487065,-0.1812859587805251,-0.11182173046975917,-0.5978492286439078,-0.2706039580070981,-0.17005412298425532,0.04961431188364929,-0.5337408323352445,-0.9179808490237868,-0.0357919784250924,-0.41378175507255116,-0.12149387883375568,-0.051173579160545477,-0.24392875561060146,-0.054032319280869254,-0.7750845835290523,-0.22665573188865773,0.27778729477852415,0.020148526684913102,-0.7478374922669206,-0.6690852575551018,-0.12338137632121181,-0.052324134585876134,-0.7581290100813906,0.1146421957080778,0.4798851602168013,0.22698944347821326,0.3941421577840307,0.3193076630508318,0.20186686808872695,0.10407519027020297,-0.1001268696875954,0.05617101849817655,-0.40104599651513967,0.08566313366223297,-0.11406134713431752,0.2470542726043075,0.2171192951539021,0.3307886026548512,0.2505737977581303,0.17790861982737627,0.39664736384899085,0.041327317344772775,-0.47693125689110855,0.20124710952954686,0.11453967005989109,0.41655938376327856,0.19708515786957667,0.2779527536214325,0.1359880701880474,0.511400621948552,0.016642774175544252,0.2974353969857004,0.22265425393849558,0.06536876200874155,0.1527417520984886,-0.1866546692358482,-0.21035664711184646,0.33406412726069123,-0.3212692503991966,0.19274164198299695,0.4436599577684569,0.36473365245774775,-0.08948621250917072,0.34490049111187226,-0.6725789448514699,-1.4353379434209543,-0.48893989609973565,-0.09206491198196175,-0.29708462494220333,-0.5417107607089318,-1.2154604560566886,-0.4005183467711021,-0.8208446635836638,-0.7471601440252071,-0.4253019806578269,-1.5006141904032977,0.3088482545217142,0.1892685952763592,-0.015248008795120862,0.030971220500955528,-0.24818849065123474,-0.9343102013217911,-0.21819528719615053,-0.34581030814338415,-0.8371018511461803,-1.06199986821828,-0.13273504580106316,-0.06535833547887722,0.10616819976662083,-0.7651303923566732,-0.1830712130231946,0.20696042599286807,0.12886329500519678,0.31191807321644266,0.12439770159827364,0.1539666294871833,0.08899672678740382,0.09924413083815052,0.3125193147121118,0.3027030966439613,0.32528799611696024,0.19178029227841434,0.23366957491972581,0.30344308719075835,0.15472891263167785,0.03652052170094869,0.027701423258512763,0.1191570862204557,0.28445061837334035,0.33248440931003254,0.19351578383875612,0.08450959322251837,0.18865208151824223,0.04401463913476699,0.14558391320282502,0.050835336437630455,0.2990506164777023,0.14631307209973504,0.1598263518893921,0.3520214581191784,-0.1063901737801487,0.12903465656253613,0.18092425109439708,0.12073388498971037,0.21087790238900328,-0.4391824719485825,0.24850089196252442,0.14750408182681407,0.17792898908833332,0.2994844836070732,0.26929541752986635,0.12704887986919827,0.24746501050065506,-0.1843709880833163,0.17667545026864623,0.056971764796306286,0.1402491437973595,0.05738532144978963,-0.1726722306902594,-0.17690371444563274,0.0522649342496051,-0.1483567467649056,0.42517752398408265,0.04530622521082718,0.05817811819786205,-0.13780513189811588,0.26356039942634224,-0.23065486988403455,-0.04842014804159876,0.14140872822401224,0.39987278159780265,0.428286103343979,-0.21025834520435283,-0.590134136281755,-0.7741702736063222,0.15596316576653385,-0.858301851298429,-0.9386951943258321,-0.5207263477984037,-0.031896693100847424,0.057956661984068306,0.08196329579641515,0.3322507857192315,-0.28906362819189185,0.31744120227621997,0.32422734626581073,0.3147866480872803,0.28299151412169826,0.37275217323662097,-0.004164427197728,0.034357524971090535,0.3147037554397563,0.43929863324308344,-0.7403308613478827,-0.22773297190435274,0.5009440660801253,0.36238820400574207,0.3803801678480498,0.18026836043936265,0.3880184175491799,0.43453789556495975,0.4906592956216502,0.4446710296481274,0.5081221181505041,-0.2834821676435247,-0.44045854286241,-0.08952623701660786,0.20354752167315415,-0.7216284156467405,0.07628340388055171,0.0389627972534754,-0.05113124864431359,-1.2565127630189212,-0.4340389578328783,-0.6821455859661035,-0.3602570598440696,-0.8220834497398527,-0.2750800667116858,-0.39639807034318864,-0.19722550753008175,-0.8273383464169131,-0.42115469456047483,0.08838022369907758,-1.3527840069831891,-0.05632222444788271,-0.13899067609309715,-1.006155256640157,0.030744858431694246,-0.7320824291884795,-0.16578750989176186,0.022531299708921815,0.2777101620050796,-1.0938302474567294,-1.0481234309857694,-0.08140159379867301,-1.2515700975943238,0.1671974032227049,-0.7554136974566691,-0.41529739827869205,0.05359385223204324,0.27778002744395314,-0.02441958677347232,-0.4449955087740757,-0.5830507003916142,-0.12056177259841211,0.102744789980323,0.12796662377597592,0.03182962789480493,0.06706981662274347,-0.2948016060449535,0.18999728265669774,0.10998876571871896,-0.25526648900029425,0.284243532271327,0.2763741028971982,0.14446678192794823,-0.2946117408432073,-0.0053385676672583465,0.25526770682734823,0.03177287316698229,0.08968881818010904,0.24082521060259038,-0.017857161096263275,0.035711484640014494,0.1936499360426459,0.25981871342336677,0.27162847881441604,-0.20759763856742705,-0.5612692408127113,-0.234697581349867,0.05079096263721482,0.10918282040084118,-0.32320967402651585,-0.054502957237493044,-0.5678434981195681,0.04051086673888304,-0.834829006939281,0.3029847337855132,-0.20449681288472238,-0.030994521838505346,0.21606086916415654,-0.40772439292160545,0.14546517869352246,0.49550821654354166,0.3767478929527576,0.3010106629349715,0.3344128907585846,0.38417965256734915,0.4543425140024636,0.16594862217090042,-0.2582479886616174,0.12548978021472684,-0.3977436653227262,0.204843490124923,0.2876293911289091,0.3852546565556444,-0.3135984176906648,-0.1692173886830147,-0.3626609970985157,-0.42852742767725377,-0.5271861309495399,0.3886355740074196,0.09935573623624215,-0.14680556058337582,-0.37128423971607794,0.20501757101527218,-0.5837410776006947,0.011177207751121541,0.1244447745093495,-0.3933936161663987,-0.35345001512649094,0.06692080211695521,0.3506490468003524,0.42026334511815905,0.16577693089454767,-0.028183782506256184,0.14551001766746624,0.24759763263020715,0.3988854859759887,-1.3150853426235767,-0.005445548657162831,0.059918910140424046,-0.599757603360684,0.04741178815822533,0.05200007454393688,-0.5561744288644006,-0.15409669576108428,-0.22753411091901574,0.0001461551391004888,-0.061739785653961654,-0.0011210129840885632,0.3072731657162445,0.3796598460106958,-0.5393186507756402,-0.2612746646935321,0.004609025337243902,0.06101524749748896,0.2595019071784924,-0.20391641844545078,0.34048051936753404,0.1570079660983305,0.09555141240510497,0.03432782679702215,-0.0002784983407246347,-0.2555425615251873,0.24884198767928606,0.010972747425692373,0.07180936910401084,0.021616087842387926,0.09047103119995387,-0.49028147638986025,0.13566984063344395,-0.20271808638576266,0.3124610972237997,-0.10455107912707774,0.02887440003064652,0.23081741139591788,0.4455531054370842,-0.8589863824817,0.18022955397586707,-0.10455196550247857,0.16583027810698334,0.13441622105061318,-0.03976685072432953,-0.2758052164732961,-0.030155031274144237,0.17970230543455307,0.22471175165295895,0.023563556923495006,0.13417686050715147,0.02506253036419226,-0.037424712828228526,-0.3426045582350923,0.4377746083565206,0.05122334228195272,0.3095320155189382,0.1304826962257293,-0.05297849503811752,-0.1677088900171016,-0.026915957938330518,0.2066990071059198,0.28830272606144297,0.33944544911542196,-0.18469161548156363,0.0932803844036933,0.0890181467289523,0.22067922036433876,-0.03172038462890819,0.11769001849725645,0.2910705150444431,-0.29481377294199507,0.20964455925984837,0.1500156688031343,0.2858642303490398,0.2680546684517148,0.13570429220569968,0.2123180096986855,-0.26584907587254447,-0.1678406772774099,0.15861045291050674,0.07376069371899861,0.24972864084545143,-0.10032194796123244,-0.030954410590128573,0.1796224489654015,0.15262186995883084,0.20839894247653531,0.24406541514499597,0.023632200527604202,0.008543513136052408,-0.12628479411460528,0.1890491408123368,0.39462285861110064,-0.2590087700290415,0.15465626537765811,0.35379714208996116,-0.3066115897997277,-0.2279166062456995,-1.1092337134449086,-0.4332078422875614,-0.9276354368995243,-1.366660608752163,-0.2227818636045351,-0.7593672427171325,-0.3714118187870022,-0.05298712225788161,0.31619886674937464,-0.08306530312086151,-0.580947992331287,-0.5095975430556388,-1.049443975961007,-1.2606976293871,-0.13380093739097407,-0.22945645965868683,-0.8760407472629159,-0.704740467462488,-0.10037078476187963,0.3775127894899312,-0.8357281338744287,-0.5154793801289869,-0.5178634742147539,-0.5086022835295386,-0.5141017757310894,-0.7894115802006094,-0.49762535267882396,-0.5356592836874922,-1.5233271071746421,0.021506598905558044,-0.2675341810343208,-0.5954812511336576,0.11426140208744898,-0.03161403800654407,-1.1186355679394153,-0.5936952159253074,-0.2966243133617187,-0.19147462754587266,-0.8273774319113665,-0.6180490730742864,-0.282764392278675,-0.16743500127599498,-0.08173048780601422,0.10264791694613633,-0.3154587923013148,-0.9378438250509938,-0.3423736025232966,-0.9691615679597391,-0.7537560926907815,-0.2942316014784701,-1.0443797513597863,-0.13343158516892717,-0.8688012751762649,-1.329138671886448,-0.10494497019621342,-0.4990124507380014,-0.727215263916006,-1.0570595287973794,-0.40288699386354115,0.3788708757532998,0.11212023624900587,-0.12993130522222104,0.3420282239097587,-0.37037998087009333,-0.25215568019123014,0.10707456140703413,-0.18112108663851256,0.34306444768749966,-0.01602173489631332,-0.018349242868643964,0.028142021743685006,-0.5503365111221189,-0.514436426607461,-0.6341441313756434,0.08074172071513469,-0.7576375844491904,0.05201053143501703,0.15456501396256642,-0.6647252233324986,-0.5763109636719403,-0.8381598971803662,-0.18707873496600794,-0.40729118316696966,-0.4917369234180398,-1.2927314892487158,0.08802079253533229,-0.10921557745990482,-0.7285810036585973,-0.24680745838546247,-1.2182540588656245,-0.1545240160553352,-0.03755982554078631,-0.21062329090287055,0.3454505940710232,0.07615065769566684,0.18176711415463415,-0.30098775737532696,0.032892987016173665,-0.049934459380533806,-0.13865440022501685,-0.9289434937015879,0.08884142558142477,0.14332712856805005,-0.06036132019965891,-0.2921323113902392,-0.5698446502577309,-0.6264232551019058,-0.6888070835797312,-0.39305523744661813,-0.15314418474769437,0.248788033820819,-0.28123182563321314,0.3851307207861599,0.4639409006273408,0.1555038731287431,0.45659498999245435,-0.5640599334393792,-0.680063365274561,-0.23446055255632978,-0.9155679938671728,-0.6839245011718833,-0.06583291320787624,-0.23492730702873366,-0.8084865871075724,-0.8209966221922299,-0.3261407540938339,-0.35639841002860273,0.16844138473756942,-0.3582585132601306,-0.3528581743121036,-0.6080381665190648,-0.7308245668700298,-1.0183673538067624,-0.6589909213322355,-0.3611009886990371,-1.033490216248196,-0.2949434793186969,-0.5058194023500204,-0.6481077713143814,-1.0343156771900897,-0.7001279608583438,-0.1699895507870481,-0.11598919526459148,-0.2852068264067689,-0.13123054365576817,-0.353927642932645,-0.45628241403150105,0.14948837718275412,-0.025470176410201873,-0.3145884430220287,-1.1147832087611698,-0.8925438385804845,-1.1945911997942396,-0.2745048164583149,-0.27916614717636207,-0.4339384432098336,0.4361923222898908,0.29611274855564657,0.3522581252062753,0.13164124678122074,0.29272490851881794,-0.42203262913520057,-0.021705473943216116,0.14839582232124754,-0.26302037958488766,0.12197763186133713,-0.36021207577246467,-2.2369501134364818,0.3952180084881667,0.17575071858691368,-0.08114161727452474,0.05202605145610784,-0.020482296941510308,0.0752702196621971,0.30355758033390573,0.13783411235252055,-0.23588823672351925,-0.4127038152683071,-0.21350877113691702,-0.5939532305911955,0.22956593390982055,-0.5723324724965065,-0.1628047705067632,-0.6797333882536531,-0.785205666797224,0.15707427662926046,0.06388702553610598,0.8499767985418145,-0.04379102356544503,-1.504166978499324,0.39733822828067183,-0.6187496938205357,-0.8400788955846659,-0.5232429630577407,-0.16597513299393649,-0.1801173523699651,-0.31729717375419264,-0.4054268327982959,-0.49277929763764944,-0.5384445201434347,-0.6167641497309376,-0.788445518925768,0.1998431317821698,-0.5620417564952057,-0.3316394076899579,-0.3342456991362087,-0.06304512813472976,-0.6007014185945553,-0.3041062544035525,-0.29144236316235295,-0.6350560234494524,-0.23840167471039797,0.3249728852164172,-0.7387967253693164,0.19420405567141338,-0.8392219717195344,0.1168411203181876,-0.296842559941519,-0.140135224048125,-0.592295462933159,-0.9704315135496333,0.3271476219990987,0.07549722659413081,0.2852427829532566,0.06529200370058592,0.15176928382340654,-0.5984570951310866,-0.5372990120111218,-0.40927269998229593,-0.650301802092895,0.041375177448404965,0.3447888734265169,0.1555310385970266,-0.4273874579894364,-0.4700390469756404,-0.31952966047601905,-0.2636404026298031,-0.3657990737820544,-0.11128515555311107,-1.4928307599484687,-0.5324118172579322,-0.849594073937507,-0.6749961162188677,0.027853807623360847,-0.5108449928462194,-0.5546268267877164,-0.3616911168465699,-0.17594014110612308,-0.5449296440795891,-0.564678581623243,0.03185304968500132,-0.4895911489068718,-0.1929209938493791,-0.22143574915419986,-0.4392717722371698,0.2230760843150172,-0.7865210934308299,-0.5630076613514378,-0.09908590564890704,-0.6518541155756805,0.01609062699859199,0.030387468166429385,0.005637667179199922,-0.9887155910823752,-1.3206183127861837,-0.1257007077800839,-0.8996874176490903,-0.12548245828533272,-0.176539434265416,-0.9796381967530627,-0.38489753919851705,-0.6573795504790959,0.2798394469305173,-0.23819709545397338,-0.5462621226018728,-0.051417010371607993,-0.7456280607324206,-0.6221199533402946,0.0656091213571417,-0.5197111174267623,-0.596675530833493,-0.08993229065342372,-0.1335314528236603,0.032085352514515934,-0.12086838431137777,-0.20354333577096714,-0.7259390273516009,-1.2809840138991315,-1.011175800025083,-0.45022594999941074,-1.099238936172602,-1.2576257432359124,-0.5358698217740236,-0.8429066620238088,-0.45109672969904846,-1.0679460546978914,-0.096074453252789,-0.056185958810694096,-0.6122217148486266,-0.4202920709442442,-0.7175616234419804,-0.6276905067077658,0.43522497991115366,-0.5492130326340168,-0.3055580317601838,-0.7870529161913601,-0.10947544148413325,-0.6252697681928303,-0.8381606241063377,-0.09621750511526568,0.02775912417026314,-0.3972318452213456,-0.4547316279769938,-0.10729418916557265,-0.4587529057550806,-1.0277055811621723,-0.9251736644955709,-0.3165921597260092,-0.5744709646853704,-0.28226929798578776,-0.5614324016227596,-0.43711483099337534,-0.7065340838203658,-1.1905935944355936,0.049296349236913034,-0.7033617353922813,-0.7440222492223919,0.20221434848007158,-0.6334478135934242,-0.9877652515263172,-0.1135683743466814,-0.3100173783540373,-0.2551733583499726,-0.09639077113840609,-0.4971628289813192,-1.0930141484952411,-0.06791826763948001,-0.5550773070261256,-0.5624825241005845,-0.3403907623947852,-0.8205836032273903,-0.6295888627195858,0.3586869257977174,-0.22039631951962535,-0.32386703271765505,-0.1369467249169506,0.25975857238906863,-0.18225164185099238,-0.8692577468774634,-0.41698937596364516,-0.03389520786887137,-0.17440025102080947,0.13393706459918686,0.31608257603233586,-0.10738904564193992,-0.09717671432385049,-1.328296743155064,-0.4285977372949438,-0.3131767417446005,-0.019960578978669086,-0.25307594682473405,-0.2547077338606588,-0.8085228309999043,-0.3471170441033386,-0.4693093411762756,-0.19304507772549953,0.009118157641130291,-0.7051505062079939,-0.9450263956640793,-0.6677555967538454,-0.6383103867171656,-0.6888098261963264,-0.1961062379309923,-0.5601107083672773,-0.7585016889798307,0.37945379032872356,-0.09839644388028873,-0.8126129695548048,0.0016893342928214108,-0.04948291770993892,0.015208410651550968,-0.6576767287534886,-0.36438218739860434,-0.29813432338054585,-0.5574514222433489,-0.8425589544716108,-1.0738643091721944,-0.5332147785455286,-0.3453644852148375,-0.5029498284712173,-1.133241789196091,-0.345161434999213,-0.8201029354519084,-0.48042752557963836,-0.7159769350859553,-0.314562821289101,0.35237780934663854,-0.09907756709831692,-0.3768016013803829,-0.09292441474293515,-1.341600524571255,-0.0036872532106307972,-0.10379844439930043,0.03875937298936205,-0.37215522450740424,-0.9042527794845902,-1.5106113516973247,-0.39025148859668557,0.13665287805320225,-0.5611472183828784,0.05740905785732294,0.15321944337707996,-0.2570150757532413,-0.0030331883256044384,0.07389964020707532,-1.5725015938308289,-1.4321924722063646,0.40681020940978596,-0.741181616428208,0.05506634174370872,0.03139624866767532,0.23089420490609913,0.3601085798107898,0.12322367655372406,0.13866967332645672,-0.873027192849051,-1.7753153515277542,0.3025601441436383,-0.5295074979337,0.1748381841110125,0.3704671951743788,-0.25010400628487484,0.04554988069175763,0.5054052546144835,0.2584172447185845,0.2593445311963574,-0.1360104218986195,0.3710351667942947,0.12517883805588453,0.30254560028286354,-0.3780918905364022,0.21477084158152415,-0.056958466077339565,-0.5727677141367379,0.18995997511342805,0.21133829417814917,-0.09081811136404556,-0.2772283095808749,0.06633605605791883,-0.4045621281412478,-0.10723915870973733,-0.25460781871836785,-0.34427121475297084,0.283351699463578,-0.10628560854704464,0.177230391570528,0.21312556663952645,0.24898025688588343,-0.4626604928606363,0.05758046057536214,-0.008899776878289738,0.36005352203670643,0.4572691424449504,-0.30950645829974616,-0.45899504700773763,0.17390241835312167,-0.14669388473853376,-0.8268811287377321,-0.7916299349451106,-0.27706861420327294,-0.22830414427217685,-0.37600883726478856,-0.17242685492853482,-0.060662542171261144,0.276350056537873,-0.06952832255181551,-0.2790532979607082,0.004536863696429978,0.09792164901172026,-0.4995234704894932,-0.2815211100850576,-0.3806469191618029,-0.5965341989863391,-0.2671363751917622,-0.8089795524269289,-0.40804064977378285,-1.3764290256835674,-0.7292946654622772,-1.0227325222198254,-0.6391355471586183,-0.36542457497932046,-0.3351505969101391,-0.2114709194503258,-0.5556961523079168,-0.3127107340732842,-0.4949970199719395,-0.041759807018462144,-0.6080793017375733,-0.2777942277804747,0.0317712297067642,-0.21594391840475857,-1.3501516719376607,-0.9360565432252727,-0.9395765460093151,-1.0597715240835464,-1.3173485979975548,-0.6319316182061573,-1.0423714876113221,-0.6634582034667167,-0.9620288069752614,-1.1234534771805176,-0.7171205887703184,-1.030936178962984,-1.1859468225554979,-1.338344097606119,-1.2032837639596399,-1.4103753059265236,-0.11505879401401925,-0.3660846720926306,-0.9252964771731278,-0.7219123822662454,-0.8856032848064741,-1.0842367121586647,-0.5162371791327282,-0.08121870289336092,-0.856772971886269,-0.33604180094791347,-0.7306667656578215,-0.17097343607298313,-1.456446125778757,0.037271642279939045,0.315249090351363,-0.33684965326163785,-0.9599216269399798,-0.9579196452512646,-1.1931517306029553,-1.4309122142095183,-0.6497132469467716,-0.2597517187046447,-0.6326174094189104,-0.1702892267541902,-0.024858448531652085,-0.526562160940652,-0.7977939223519482,-0.12605776667985064,-0.1269888484712104,-0.604502633916902,-0.8928499557982519,-0.9223223807575622,-1.006076903131683,-0.411312185623548,-0.5594288248515473,-1.2747041495796798,-0.22564555802937988,-0.43209542276992713,-0.19994777288632756,-0.8871625716793392,-0.9840414345649495,-0.6528148248666068,-0.42622314550939105,-1.016591361397819,-1.1666343457064468,-1.4113259719635427,-1.1798934969540305,-0.8057784791626741,-0.5144238081103744,-0.009916431181468933,0.07789343558023272,0.36643726377278757,-0.4712499666185587,-0.970215785907121,-0.08150966129665002,-0.3918584529750138,0.0894729712534419,0.10367850785240548,-0.1112806281716847,0.4003481763427576,0.20551527893425028,0.3995962983986208,0.06621302123120118,0.3352185597745855,0.062321026026272895,-0.26272718148406227,0.1453216406839544,0.10217684265702166,-0.11580463431013674,-0.2783744526674089,0.3286243259108623,0.17481921494119687,0.09630951004066748,-0.004021763462208815,0.15936699743554195,-0.5942586973623026,0.30064255078739816,-0.015347685591536118,0.05464331224544156,0.1511385674785588,-0.17198898461912207,0.14767470626942916,0.2452604435099071,0.28494943622243757,-0.2189535654855094,0.2433125912082478,0.17190614746103952,0.42375225803526567,0.1362421452175136,0.3308480273769635,-0.08882780857054337,-0.0959095557656828,0.4829946621537187,0.16508116998436562,0.4648714392866787,0.1965336014705359,-1.4678791195085397,0.18907749745326463,-0.7020381259750936,-0.7959261395802145,0.018004891628384933,0.2151511125312359,0.09002553497042663,0.15009602330229052,0.06768427596035438,0.15514831467731607,0.3683066833102175,0.13239711203497848,0.0515353734051821,0.17130726004190033,0.10243943693507163,0.14928459263138866,0.33699371116836285,-0.5643663245331533,0.4130644115245465,0.09114353078166373,0.3313992584021631,0.5431583938206062,-0.012062199469579874,-0.14905779638145997,0.30779829559223737,-0.3981152378891117,-0.05039291529940116,0.24078322380838224,-1.2314033380800173,0.2663562349699365,-0.06688115034014544,-0.1584769042858612,-0.43177786251212985,1.0022039996320062,0.009809937502717973,0.10079100159193292,-0.1203582111332179,0.35523841226854336,-0.06527046894039637,0.23011487220885768,0.08495452219168598,-0.11073535552833598,0.40426126778523497,-0.6278202722749623,-0.552376923194826,0.3549885811379813,0.06882184640078783,0.05691899776016375,-0.41546509221746497,0.07543404820941015,0.14894065029400708,0.1022721866186958,0.054587483762668275,0.10705299023327852,-0.46772919297016813,0.2316566418151064,-0.03650465053500184,-0.09638298840049465,0.29204228067396093,0.18925715995362144,0.05856846214022118,-0.1917071086781363,0.13655307399760055,0.1303326712056595,0.18482817128366544,0.0033656740391404772,-0.5497257154868266,-0.5782357938732531,-0.9339558849799171,0.07084979217947747,-0.39573617853094073,-0.609345929992261,0.4035640435655153,0.1522477391920526,0.04863636291405754,-0.23323509845977514,0.20806972544290525,-0.08884295686427154,0.0901315552953169,0.1643337793540469,-0.49832417684826474,0.27149442888042724,0.3122272602905856,0.5431904830620793,0.09972775127076533,-0.09843463137398789,0.39288432412357416,-0.07542346062901392,0.1648144898021176,0.23104065992636127,0.3411293751465635,0.16586789594595835,0.4249207668827361,0.28320535889818865,0.5877682727767524,-0.17065052941752046,-0.17680181197792114,0.13094912685950325,-0.028342036388119662,1.144007994614438,-0.05612763184757661,0.14576743872831313,-0.2872756706498577,0.3342504463545095,-0.8452962868742376,-0.4822918198100953,-1.3105635044672725,-0.037542481826623876,0.011531707394123732,0.10484781353393365,-0.38223417405274035,-0.6072754851718691,-0.42879516675973683,-0.7862439120781192,0.2363658721194703,-0.2472375870611058,0.1101935303660509,0.48552816962049006,-0.7761627868086933,0.27570073590468885,-0.017809287373314057,0.11740977726428088,0.15718640800610342,0.09252552699936802,0.17140212212005917,-0.02147722144740173,0.33309578005401785,0.07473178996831219,0.17261793907562334,0.26676340208374294,-0.0027652103657682314,0.14570081662880585,-0.07556360068696953,-0.13092578442636982,-0.5752343640444709,-0.32175118474186126,-0.3783552479128907,-0.0020975426991092726,-0.0885953521919321,0.05851245005773402,-0.1959504299647266,-1.0485399677933733,-0.2829957839595881,0.2521991932466518,0.3115011586477121,0.03817718349738793,0.5400381556465572,0.3174708216439871,0.07925243238460682,-0.9159492626618565,-1.14235613976121,-1.0779278833134083,0.13390041800480948,-1.1616254040009675,-0.5690493039030037,-1.2163394312819944,-0.9597905128720285,-1.1069181805507793,-1.0879516352298673,-1.08632538420811,-1.0808380660315742,-0.8026265375688553,-0.16987377582321378,-0.4752345729992083,-0.08712323910002269,-0.1579151024880812,-0.3913737673864281,-0.18997214165757187,0.21447285059719476,-0.2657634009270531,0.2751385903773228,-2.044781288896882,0.1554380066859184,0.2605813931743876,0.21983805910432885,0.35428554113107263,0.038130758243544075,0.1876132264097034,0.22574962037869378,0.09626507575294209,0.1711454033865077,-0.641659871045107,0.21363414116763868,-0.5005768745401141,-1.1598555757942581,0.551697793608731,0.016438665964900897,-0.8819600201804074,0.054761023619815226,0.17688890585600905,-1.0787760247024565,0.006091075196202263,-0.04215187911150072,-0.4056440366651273,0.3280635818063126,0.31026763767650006,0.4752190610284458,0.021440828057633886,0.47519219360125003,-0.007881347288789812,0.4103741385668585,-0.11292660973664168,0.10220906416377147,0.9821566767572494,0.30252131866788196,-0.01694766598437891,0.23505404564484267,0.5252423246891369,0.30802016173617913,-1.128009929614566,-0.16946820196512655,0.6277036625605104,-0.19335830852839614,0.9616372970355407,0.060299919225855085,0.19169972622238562,-0.6529313724168222,-0.6591912536969665,-0.19424505115128088,0.03958221320180756,-1.2675324573950695,-1.9901147536589006,-0.5229907274746058,-0.8649404958388287,-0.2506765434558533,-0.43738919533787823,0.29988141520120637,-1.2624165469636062,-0.4086037205642501,0.1549386298654807,-0.7663002666742358,-0.5258050499995005,0.04583248395301683,-1.2555711108666034,-0.2700777699054471,-0.10033717420564403,-0.30972498694372486,-1.282408922218808,-1.378987804345548,-1.5629596483229367,-0.9417886152854228,-0.35654894400892634,-1.075844050317494,-0.4885105469531079,-0.47106596398854533,-0.6469738004538271,-0.19748912914208255,-1.0415614977655123,-0.6051166228739067,-0.968314984270399,-1.0468425852195704,-0.49624180938627027,-0.4944391844550556,-0.7120909959053702,-1.2586204133056464,-0.29571281704970376,-0.6265905577628158,-0.13540158376880623,-0.5959885074339628,0.10782863403980868,-0.5497056549720545,-0.02949574502661694,1.370345894849875,-0.2219909112863031,-1.2274179473865445,-2.1357002518433,-0.47931785568461405,0.31146437551496525,-0.453126750652801,-0.4622970604163657,-0.29891295085177405,-0.545366207162295,-0.49199056534629404,-1.2423040416823696,-1.1290371252823985,-0.12530183497306016,-2.2985803715686064,0.4635874876953831,0.27802569800689475,0.19405639822816087,-0.8293669118061089,0.22229644699898787,-0.0976978677762435,-0.20018818877028477,0.2056576406508178,0.33012923445934633,-0.044001913914888634,0.26427045695948825,0.11450323061122719,0.11392901006418842,-0.02173354625182813,-0.7944617340890303,0.21699436479592704,0.32834463214401793,0.04851873215502645,-0.03634461184413425,0.15227135489733695,-0.2452635226747579,-0.7736747111412768,-0.6264428313075393,0.11641397483800064,-0.8956932104354212,-0.13407004272363682,0.03063482894644903,-0.7807776118677203,-0.30944130515136453,-1.273493444034688,0.20798005421128007,-0.18558670761651125,-0.006092202282616904,-0.19421115249499502,-0.5567739001580227,0.052501340329960455,-0.25092169913026086,0.04005477578591677,-0.24315938730608924,-0.15900340086490727,0.2367914839889321,-0.25825904050201803,0.33277869534569493,0.28196068199364543,-0.41300581985401247,-0.2164382797692273,-0.08983193752127579,-0.3281502063626754,-0.5625661796709936,-0.6466913928438797,-1.2461516430247581,-0.7654106968816382,-0.8041257394010501,-0.02937494418282824,-0.7005760325207504,0.008287697410756632,-0.837951695578935,-0.45846804555740805,-0.3456288986117299,-0.5471259067644066,0.18498902612954932,0.04055298582764171,0.27710998212776206,0.35548018855932445,-0.07989973727578958,-0.7121424184530871,-0.15224442508441868,0.2019783648493422,0.19927458170984994,0.42849908266101405,0.27147390650635567,0.2075222776119399,0.34590384729312457,0.14325471532858594,-0.14423864907883358,0.047933120892320255,0.24544777630335246,0.08732031737711182,0.15886313646989295,-0.046847421065172895,-0.281948531466032,-0.05156204065889066,-0.15440355917025578,0.1072776200222326,0.3620030753821762,0.3473780733824735,0.21195516159615838,0.33056776534819016,0.0014491435449669034,0.3076481790903984,0.23064998849758653,0.1464065232702038,0.18528247014928084,0.15366367557948934,0.17860232322540434,0.3501766126033544,0.14603917565622876,0.2032382575182049,0.4113931982709112,0.042584801312797696,0.05432319637476449,-0.3306689268751129,0.052397090889471865,0.3044249191762354,0.36772497888708694,-0.6175218097162092,-0.06901397830328497,0.31116485944569816,-0.17233264780951152,-0.11229850014731814,0.13315837018413482,0.1603603425858296,0.12316795542164016,0.3435963671719036,0.2326090845498008,-0.007084130005326655,-0.44135174687708806,-0.04802446876248019,-0.5757785061268985,-0.17469158256726175,-0.31814180378005597,0.04096245711722569,0.4157145955337162,0.31429888220449625,0.3403159800568049,0.24525016761657792,0.37922439768388366,0.2753972642273014,0.3676762246237172,0.22302087737736645,0.33813649281220465,0.29879279246880064,0.33129349236100386,0.29650988778644155,0.3066533742140037,0.452190585643458,0.4582034061108814,0.2721895643467493,0.5211821270652093,0.2768231365369643,0.6147839961526899,0.4621697430977427,0.5033233599132655,0.3347977223401176,0.43264704260671855,0.4809660291575542,0.029801088394939168,0.1820422990410935,0.6038815220631865,0.5869609504229298,0.25837045421328686,0.31529862525945335,-0.39928809132799575,0.09801081250347414,0.29705032878372534,0.2771596070672392,-0.6403856680125065,0.01171966104328936,-0.10230846171139894,0.004625294646979156,-0.1585432458475949,-0.012290409004413737,-0.2244261951269559,0.22295794988354423,0.19712430465719583,0.13590365748907202,0.08770583257665211,-0.4350223690218726,-0.3104672790375195,0.04771499603323579,-0.11162577275014479,0.08410115917025873,-0.27940971583592583,-0.3884615309548747,-0.34826862385475943,0.4303749835072037,-0.21659114947646865,-0.27342383268119874,0.014918491821558843,0.14935518051749036,-1.2059027199899346,0.26983357113873446,-0.19719336201668214,-0.29628919667006964,-0.08432558999680047,-1.0429043254723136,-0.45958470802111817,-0.13884313480724564,0.14301538185168436,-0.09437644613604503,-0.07152712898196345,-1.0536299375973235,-1.0642205880307356,-0.9231054490383152,-0.9837579675523614,-0.3098242268529007,-0.7918022754067947,-0.4850440493653374,-0.499771807502659,-0.8536773115035565,-0.6390236852988074,-0.8142468191670541,-0.7124399284861523,-1.2707111364534371,0.16537888094275552,-0.7846502987997683,-0.5312993133427153,-0.765065897966746,-0.6236323810165519,-0.818312817853197,-0.049924389102604785,-0.003524315046594552,0.23133662771611085,-0.3461449351341833,-0.5258508433894874,0.03501476272413128,0.9062594023765684,-0.19754911186318774,0.28727380381524675,-0.4277444931067554,0.3663160130315269,-0.7005504162498386,-0.339516952332876,0.289919092494844,0.35724003564320017,0.15085796263314794,-0.3232147798743855,-0.8282449063802245,0.21630291050638792,-0.2107579288336768,0.02088687674453001,0.18131437438340037,0.45513430951680467,-0.9122862164915325,-0.09816212379845266,-0.0438264998364741,-1.149257342826579,-0.1388785688411372,-0.13401783319827534,0.46584681858755855,-0.09225013799813174,0.09797769684405079,-0.04140359782015899,-1.0070369698130355,-0.9324595311005256,-0.4970268568771063,0.16655902647029297,0.2480758354801606,-0.2520836363401861,-0.093377838524854,-0.242327186949607,-0.21922734573566321,-0.002300749982520214,0.3574186486198438,0.20493856004704072,-0.6621599685574768,0.44704905760056907,-0.0950397923396562,-0.5391627940158679,-0.7169337573315755,-0.6670669798445681,-0.6196160315084581,-0.41474904749116237,-0.11243673127783904,-0.02253859372429331,-0.40590938973442636,-0.1776549770387931,0.2599144991417236,0.11777237288328615,0.2476866936697701,-0.4881768063833986,-0.20391892383106006,0.32036925902440866,0.32246234247566247,0.2502720433721306,-0.057734003263126124,-0.2644877309729003,0.09137835718861985,-0.3824867825836751,-0.10985499623959101,0.3065396403748078,-0.38054634925332587,-0.10135638200426492,-0.7162735936384216,-0.4614205809625701,-0.26031236449119155,-0.7316554608698359,-0.4846670699997293,-0.6730802823750763,-0.7035190706750435,-0.2734919007104269,-0.3956470308865807,0.013691310047153803,0.2054976547384932,-0.8002551461350145,-0.8061639905276878,-0.9201207791191258,-0.5186786900703537,0.010576571497910631,-0.3659575067522778,-0.8510426120141908,0.2998618519969199,-0.517288051466082,-0.36210329406923825,-0.15259453546279517,0.05688725055884486,0.057785627559647244,-1.0933348829698184,-0.16344145853474576,-0.1571988206575221,-0.6235166683456712,0.002065540989060656,-0.14515577922815587,0.14757283865302478,0.26284471493876055,-1.3071767171187436,-0.6657624841971522,-0.4254373773432875,-0.25634549678680557,-0.049173544584967414,0.030816763552032403,-0.007563591470442678,-0.7383865833145287,-0.08586847222967553,0.02076069333412065,-0.822824098977004,0.3137660943895659,-0.6621167692708174,-0.5106621972391531,-0.27771174361220163,-0.15232516139102306,-0.23793565775791306,-0.43448019512361796,-0.3731805276355366,0.08461174010015775,-0.10934275477441896,-0.3158361838845557,-0.3547574556168923,-0.9285723272350955,-0.22533935385252954,-1.3968024014102718,-0.5380264541450717,-0.7042280098028373,0.0882932521829796,-1.0249918439785244,0.0465284270186937,-0.5877560425691449,0.4432884553432127,0.31026869321819467,-0.3188492890394039,0.20992014296681297,-1.120168395508345,-0.07183027532454911,-0.16413774442771956,0.16327729343032935,0.26236023335327713,-0.3162074980543353,0.09107130352087515,0.17906893977185587,-0.08906626639391839,-0.48625196325254944,-0.27273216059397154,-0.06340446872964202,0.10219730232386931,-1.0855528218426875,-0.4949110499082303,-0.154635531676263,-0.014206885146423634,0.16149029161605505,-0.9784064465555278,-0.2744013227888973,-0.5919375191002918,-0.3518723617343521,0.29321350177296274,0.2382828897050578,-0.26597841365508706,0.209698572296085,-0.13956006707309232,-1.3357810101448528,-0.343585482575655,-0.7590732099591526,-1.2034334974269267,-0.6695678270249865,-1.055867026544003,-0.9222780054792866,-0.12106880219403597,-0.7614381956664877,-1.0284841377301386,-0.2001960667643811,-0.05092170688711047,-0.11303972601051773,-0.17308559960231504,-0.531707414739096,-1.3195004777087127,-0.5731534147669137,-0.23556224182455313,-0.7082021465566931,-0.36607437563423345,-0.5516798965856907,-1.0700509508712492,-1.08273927345519,-1.0688730640251798,-0.8970629216641415,-0.24343305117679642,-0.13914318936490613,-0.9957235578696887,-0.7718746109515282,0.14189725650834187,-0.8176679283875394,-1.2137763861180022,-0.7327064031103452,-0.32556554946905847,-0.49221049298140607,-0.9426856577859221,-0.9911684242811082,-0.9143410069443217,-0.2191733957092842,0.1214394046100253,0.07323808080320744,-0.22690740164210926,0.08805110296479797,-0.21120388177294452,-0.4487540749862965,0.05567342804998542,0.19231312556451174,0.2158428354486485,-0.058373256361363264,0.03670516470688228,0.09396935113283914,-0.00821275299324462,0.22513181058005818,0.31048311538236295,-0.3699273114710434,0.24082459745207174,-0.3476540706833195,-0.27644063574373867,0.0993216507356611,0.1877006235419439,-0.05343376045093217,-0.07941550842285976,0.027844246634518722,-0.15271281652328675,-0.2998026089679839,0.04290096737396374,0.009152805706930467,0.22371010939720662,-0.007039811885385661,-0.06339303326527754,-0.36289278288976934,-0.5268623250286026,-0.015138943540960105,-0.4042325361101158,-0.24082787494758728,0.24399732881733044,-0.7174382219308898,-0.5737314746812224,-0.4552536806778817,-0.12676389303469052,-0.17759050915069732,-0.657235302946158,-1.351069871368902,0.05332079811636783,0.276247699345496,0.05093079433119981,-0.8394983124232517,0.09787455338961408,0.21196681065756612,0.12525733444625245,-0.6888366097293745,-1.423961451739931,-1.5297737051164435,-1.0204466032380215,-0.332740914626207,0.23885156403214938,-0.0684617128405395,0.08712648545125383,-0.037957200612614046,-0.054033798061999,-0.01807430223809977,0.0204507229364838,-0.3910729575886941,0.1386272071912944,-0.6246584147498676,-0.6737763826433836,-1.1979927562819856,-0.6149255949731313,-0.9567051858312664,-0.46879398778472176,-0.7401718254298342,0.15610500361067298,-1.0944491271923418,-0.7317661885871825,-0.6567744096114384,-0.7142040260440453,-0.4636164900681994,-1.1741893589638353,-1.0478817226135968,-0.8158622113043021,-0.4367218376082606,-0.43417883950249886,-0.4054719352028142,-0.6174380563391828,-0.0369712275441868,-0.566356076218519,0.32529745486456707,-0.28558969051497424,-0.4179930230420803,-1.5120912983503603,-1.058542123323478,-1.2621444458921958,-0.5747097163288041,-0.049466128563508675,-0.1463474680189574,0.1295561913150461,0.012722851084398464,0.265289868999116,0.0028826100732197903,0.21162828429105607,-0.07629843334998568,-0.026351249826787913,0.060089125644144425,0.13877115772249574,0.16935376780984127,-0.40931433735870815,0.13967686359781076,0.36217772169233425,0.30711915637888143,0.3304748551354265,-0.5037505975640231,0.19278440914016787,-0.7512694996169391,-0.7527166528202615,-1.006671529348145,-0.4827316555864926,-0.009949098084767134,-0.4756383268161314,-0.7987693506741672,-0.45818786054816524,-2.1548121313790096,-0.37550204898633366,0.20449621442457105,-0.6481058549425526,-0.2501072174545088,-0.40783734976449393,-0.04019354960040524,0.017938888053298036,-0.110954359393464,-0.6856656899644257,-0.6598892847200653,-0.4877879133276649,-0.939738041020504,0.027784250386156843,-0.22089014313894126,-0.9495892528353543,-0.33587410225461306,-0.3106237762620144,-0.09836826606596273,-0.28609655796610073,0.04888198786772971,-0.2732430624408434,-0.8682828694948648,-0.5954803749481594,-0.1395077106658877,-0.6552284395035156,-0.9150012347737149,-0.8716250805614448,-0.0833133166760807,-0.5838365154736458,0.18738928096716315,0.3571427058011035,0.15504555293994074,-0.25539475057175387,-0.4371177213146785,-0.620667739068131,-0.6448404678690071,-0.1260118117954414,0.15262107188512253,-0.09259925566961524,-0.7028809667782374,0.08609912257100205,0.07291564165171431,-1.4777320240904357,-0.5657111264770782,-1.070052161849174,-1.137077881166802,-1.5106821299191584,-0.15936719216656356,-0.3897595905014184,0.10800140617600157,-0.2867392595359388,-0.26886468796352264,0.18910778509975382,-0.09965626005407549,-0.07608302819011376,0.07647588111384444,-0.05757396769004809,0.014395759808575664,-0.68248444514096,0.3451332342870394,0.18405470497817678,-0.13516133899171381,0.029063676470560754,-0.031120320409165445,-0.8653874147044907,-0.8933901539834315,-0.5202977527548329,-0.575688701751476,-0.8918314387843718,-0.4011346264983406,0.3357401728317238,-0.13023625978688066,0.13940478571414155,0.11878268033245701,-0.15304383362207125,-0.40548135420465914,-0.11060577267005976,-0.06940220704857587,-0.09716872567603127,-0.8212161210691918,-0.8878502702258719,-1.0797104056531093,0.027281846534182367,-0.7954045581970198,-0.08849468863130475,-0.04873496646677063,-0.3457085003773045,0.01195036584493642,-0.31185941733563577,0.23421250206257369,-0.03700012850432049,-0.47438332978330583,-0.7651369636675059,-0.8494268604655153,-0.11784642655224256,-0.6718861900941684,-0.5512782546268941,0.19337821431859695,-0.1467713755070665,-0.22997415389758122,-0.5360012195852615,-0.859028998934683,-0.3826625396981516,-0.5182575560827958,0.07111702964365696,0.15021875910238947,0.16418259079630693,-0.48525098555812707,0.15479598505729186,-0.6160152691003282,0.01061500027488498,-0.42508767685615406,-0.12078622622451228,-0.07229731345760883,-0.37855513982977185,-0.22193348830215692,-0.3067953500685961,-0.19037094680031377,-0.45596356469351984,0.16235464092027838,-0.12395067043730906,-0.45923458874403966,-0.6764565322843262,0.2229580589193226,-0.13591758756295333,-0.5117443105488709,-0.021919270121968266,0.3071638753680794,0.15326793861416788,0.19672051753825345,-0.3429528018990881,-0.2078367114159347,0.11129294886691894,0.15233500488594723,0.1232713666002972,-0.3910148800526965,-0.4548499888651567,-0.38004523145620867,-0.2889574661068002,-0.3214560265127216,-0.9003429132129556,-0.4193179279398006,0.0014499675854873417,0.08715168357217533,-0.14010989289723086,0.08213246623955446,-0.5226215176494617,-0.7159425790330747,-0.0916888192484333,-0.2914073444762574,0.2356985297025803,0.11659876270110443,0.27618797971997533,-0.08402672835388425,0.14641108378094977,-0.2624211275881367,0.42043063147251997,0.18600713819620213,0.08722210089131052,-0.015205211232513685,0.006324217819439268,0.024642343508479315,-0.008111882364915017,-0.7840090336712612,-0.6401250531339963,-0.3991237575774599,-0.3474477545450199,-0.2710233623070092,0.24855813777540975,0.17860573041294986,-0.28030063484700113,-0.5696562445886166,-0.9578153727827081,0.2859328025006549,-0.8388644999628401,-0.8389471749892793,-0.5695160194649701,0.037307753070176156,-0.24510397256428965,-0.32949402978801245,-1.0680428529040016,0.16912301136522678,0.02689073734145258,0.1671103095541395,-1.2081398138319925,-1.0608219714537102,-0.21680731655570998,-0.31423053284533287,-0.5720093621830883,0.09581399873160487,-0.0337642275712549,0.3409890714252163,-0.007645447936657806,-0.0028550703502193903,-0.8489402163974196,0.27168889564837573,-0.10535231264156014,0.12451037179581106,0.06975089180718248,-0.4736853140946527,0.2531126996541431,-0.5401232794812764,-0.48829848479933396,-0.4934387096396106,-0.8658306638872872,-0.44071260072798357,-0.49351317979415527,-0.3209777170062596,-0.18082457875039376,-0.5556623751622516,-0.8482817219528809,0.22592660839439105,-0.8150357657874081,-0.2642576805139587,-0.082979972447155,-0.3987714898355389,-0.15784675282855448,-0.17877156552924028,0.05637540176468084,-0.6028114045147989,-0.42310884413782884,0.12002533610436793,-1.3035572772770228,-0.2900130015212097,-0.13768765743906125,-0.5533779107910132,-0.17097505822953338,-0.28210368364803845,-1.22529647903793,-0.26353618370634846,-0.048946412536688154,-0.10956217857372069,-0.59914086966775,-0.7382846404448106,-0.3213081852502054,-0.24647240230550088,-0.5888928767093675,0.06176071285607821,-0.9755263731362375,-0.8010917168161117,-0.06722031659274824,-0.2840044484695269,-0.5944201953321893,-0.7066222595640196,0.14664104954155113,-1.126344986870429,0.27219062462768,-0.18742543083899738,-0.356221391762334,-0.20343808056114746,-0.6713047585271845,-0.24126259375779965,0.04894536495376693,-0.2536636422456337,-1.1577973722306372,-0.04061572517438118,-0.5140592073355558,-0.09715291888617601,-0.9858711643486018,0.12352473287934629,-0.0878680685225454,0.06362591698584766,0.0224720047296436,-0.22234747140636585,-0.19473569892964435,0.1759500522573219,-0.5348199339558019,-0.38551474724033497,-0.9356545265413755,-0.7008710600718832,-0.633935784347627,-0.8825084068409123,-0.5257020616729569,-0.14786574021129723,-1.746104811491496,-0.03325810292539228,-0.00016827788612546168,0.14028168692843238,-0.8835429036358731,-0.04870697968885615,-1.0948914876004905,-0.0598282357026226,-0.1652872084453925,-0.49722841312318816,-0.2497804544515505,-0.23920792036212218,-0.08982252399239722,-0.6127387517225641,-0.45219477121286566,0.03402745965488441,-0.04526768182147995,-0.6680828691971001,-0.4396367421942584,-0.25626820700508623,-0.4288307686840182,0.07164598071298924,-0.10765519987397691,-0.5928457382408266,0.17457309988477007,-1.026249177228646,-0.34221922428353935,-0.4203194305346889,-0.12198850947696464,-0.5903923038451215,-0.9866077655062532,-0.09057012822571243,0.08262280575367913,-0.27748839257434543,0.05501527645226933,-0.2648793592011273,-0.02277154254339146,0.07670228924638088,0.25866112455687834,-0.3299426875965988,-0.1107496678667765,-0.2845721537559723,-0.7808002944646482,-0.5992332608007763,-0.8834356553005022,-0.892344681831014,-0.6746995309713373,-0.8850656386392097,0.29361362031094335,-0.4523837057735504,-0.69003338530059,0.11147602282160507,-0.016167648467438858,0.13572656646205497,-0.0881628908626807,-0.564320698904397,-0.3735358094133447,-0.8236559942284699,-0.045340751333431545,-0.5076863749008416,-0.1999366438979483,0.2115748171392099,-0.7335193412099934,-0.39034128609113244,-0.14898473138521362,-0.0699811335864179,-0.07561203225733631,-0.08859323726788047,0.1594955522349197,0.007838201131649278,0.14833111000977547,0.3436285138732915,0.39112462726930985,-0.3912563696942341,-0.11185291919189233,-0.7889852155240746,-0.3463451645305133,-0.4121784866159356,-0.10978517175495352,0.05226915900931394,-0.33716559210899305,0.2932597603454572,-0.26227941055880144,-0.05611310453648944,-0.6578235155960928,-0.08147336653947274,-0.5055678331950924,-0.03935490195801715,0.22118538610510224,0.06518242198743053,0.02925335904585428,-0.02769166761306873,-0.3287937595437845,-0.08709420557196859,-0.045002037029676284,-0.013604266650284746,-0.08100847800244053,-0.1341960660284419,-0.31846234811189705,0.5207898248040669,0.27377725427827015,0.06605040361160625,0.29715952651004063,-0.30925072153409716,-1.6747421803758074,-0.4214852177307326,-0.13375199093785478,-0.5643631310479793,-0.3856556280244721,-0.41551199349534523,0.3376001821617706,-0.3052734771941098,0.01724554960037312,0.02381774089538515,-1.0616253140676053,-0.0839249327012541,-0.11498484129374588,-0.2154805111326015,-1.0220938443075076,-0.1383112407167536,-0.029424981980100073,0.09059532957481639,-0.021343089718547335,-0.22272306461676633,0.07628776002055315,0.1500003215970221,-0.8267032750490161,0.11971697008391272,0.15989962993072382,0.058850957643675386,0.12838847051405197,0.5149821381783994,-0.06137155651662459,-0.08684430338528981,0.6898952175946915,-0.4015711483285627,0.4312656782923641,-0.48852732918710084,0.1461810101786579,-0.3530135639292432,0.4573641178980568,-0.7476875000623164,-0.6331187888621769,-1.1748674267268548,-0.7652447119201459,0.02972977608901415,-0.6166168998185307,-1.245738913250904,-0.6960007534593312,-0.6240017034812372,-0.7942291549615894,-0.8663511064502316,0.13419233895186888,-1.7862749285011126,-1.450761398472556,0.27104798121201656,-0.06022495463485985,-1.0734521113506112,-0.6161853785346473,-0.7561446487560026,-0.31683579924756833,-0.6537222274679467,-0.8583148339456803,-1.4909008281618272,0.1015692745849123,-1.3036573498467892,0.2722001244685676,-0.9352192024505537,-1.4668516679592754,-1.2603256776567864,-0.102288484097898,-0.36104085889996934,-1.0216265041198356,-0.8116753015070309,-0.9594495955950019,-1.5806286344120724,-0.1816030942071455,-0.7518376375619275,-0.6473177614242432,-0.9002786133535824,-0.6730198796438319,-0.6533097060910649,-0.06094626458598184,0.21053144157398695,-0.8086088466918845,-0.8639533256240837,-1.332533819864054,-0.8238188012121058,-1.1425658951599595,-0.6919579263110328,-0.161826004057923,-0.4452678087893969,-0.4413641663808333,-0.9762299860618373,0.06249255364147139,0.2549452207004313,0.08151490700129864,-1.0640392048687413,-1.3323816620377158,-0.3856035939941666,-0.22188083131732905,-0.7961076038074747,-0.3400815052386787,-1.330932128963275,0.23255105818154048,-0.6731791147204094,-0.7491186314752882,-1.449189265577538,-0.4143771659965027,-1.1040064488947041,0.05679432842175831,0.13637950467212973,-0.660207691757817,-0.824458104751587,-1.200545158114332,-0.6799047076433062,-0.6860103455962834,-1.1876609656310027,-1.180747946786233,-0.27382028305425,-0.2453855405026726,-0.02307816748883175,-0.016123054604665336,-0.12718952149892107,-0.2517392553435093,-1.262111369740748,-0.8175905100030644,0.19833240532077334,-0.3259165600399729,-0.8110504072615103,-0.40636115069619416,-0.9976937422764627,-1.549435863983549,0.09393971692918379,-0.9613486891009903,-1.1601467006950117,-1.8684195142962914,-0.11690879757076106,-1.4769291423063724,-1.8105672568528777,-0.9143368172279152,-1.5623358801506924,-1.3048984938356387,-0.4539003437751159,-0.7407438696502034,-0.6021923919011719,-1.022583105378172,0.16574033668822954,0.19921891485503407,-0.3141317259122074,-0.8167841379076548,-1.269750429883848,-0.4404702434751512,-0.03289779077987185,-0.6464778666928291,-1.183985195328703,0.3330194152857749,-1.028658178618442,0.12728515108193947,-1.4264243021491347,-0.17403718371222657,-0.9777415862703335,-1.9689878803018936,-0.9500504909154602,-1.6880297780323736,-0.5552774439253523,-0.3187061182883694,-0.18907320608242756,-0.6773692952541228,-0.2523739850394397,-1.0161046585900615,-0.644477209423345,-1.7720507277893023,-0.49133385913696825,-0.8283332256592102,-1.1953400622424182,-0.3700641240610239,0.025764999619017685,-1.5849238620256645,-1.0454433058671946,-0.5790931060926392,-0.6983606415436574,-0.37586801783559526,-0.2675422702245532,-0.7138581452911211,0.2488276120844722,-0.12090860600104264,-0.1269564455041606,-1.1083310505682822,-0.6677227215555634,-0.46192760472664085,-1.943879881748413,-0.2922050902854651,-0.3907506573183871,-0.3777697220961384,-0.2535805905457584,-1.4913796785389863,-0.09866132691373229,-1.3036056925408859,-0.32198347818006123,-0.35084145984563253,-0.5775840182588341,0.18067311383899276,-0.762754701894271,0.22898332714003425,-0.09680044266252258,0.38612084434797483,-0.46526893497242683,-1.1456771896947597,-1.4492940978564506,-0.2134974007825832,0.2535970436038313,-0.8265677590455099,-1.150981696325903,-0.3724276614305596,-0.31527764914397904,-2.3272232720681316,-0.030175539044846926,-1.3663395370836824,-0.6254775895426266,-0.054693556956290065,-0.37493547051969767,-0.2533486208362979,-1.0421585170960599,-1.176723444491347,-0.4415039699157177,-0.1173255168366577,-1.1517090422897558,-0.6310468866638234,-0.4286450995515936,-0.5601119891502553,-0.4371806163976839,-0.4681674112342041,-0.8511990467954533,-0.13845958952780898,-0.6883824718755814,-0.27706773060546763,-0.13637988821483074,-1.175647374582863,-0.39500068569384555,-0.4205644550845251,-0.10142934088605529,-0.3560721797757761,-0.2806754191186128,-0.34001958907790963,0.10378359954124161,-0.6779519347668571,-0.40319828062941454,-0.3635291957848929,-0.17319003857594192,-0.4916749579833554,-0.9281536201070222,-1.1429423579713607,-0.9018321379569184,-1.3888011423354327,0.10854479853376187,-0.19675131755494568,-0.6198439401273134,-0.47570617325422865,-0.15448405200724166,